<?xml version="1.0"?>
<opencv_storage>
<cascade>
  <stageType>BOOST</stageType>
  <featureType>HAAR</featureType>
  <height>24</height>
  <width>24</width>
  <stageParams>
    <boostType>GAB</boostType>
    <minHitRate>9.9500000476837158e-01</minHitRate>
    <maxFalseAlarm>5.0000000000000000e-01</maxFalseAlarm>
    <weightTrimRate>9.4999999999999996e-01</weightTrimRate>
    <maxDepth>1</maxDepth>
    <maxWeakCount>100</maxWeakCount></stageParams>
  <featureParams>
    <maxCatCount>0</maxCatCount>
    <featSize>1</featSize>
    <mode>BASIC</mode></featureParams>
  <stageNum>22</stageNum>
  <stages>
    <!-- stage 0 -->
    <_>
      <maxWeakCount>5</maxWeakCount>
      <stageThreshold>-1.4615994691848755e+00</stageThreshold>
      <weakClassifiers>
        <_>
          <internalNodes>
            0 -1 153 9.1187760233879089e-02</internalNodes>
          <leafValues>
            -7.1753984689712524e-01 4.9450549483299255e-01</leafValues></_>
        <_>
          <internalNodes>
            0 -1 149 -9.4441086053848267e-02</internalNodes>
          <leafValues>
            -1. 1.9158640503883362e-01</leafValues></_>
        <_>
          <internalNodes>
            0 -1 34 -2.7850959450006485e-02</internalNodes>
          <leafValues>
            5.3102266788482666e-01 -3.9548292756080627e-01</leafValues></_>
        <_>
          <internalNodes>
            0 -1 117 -1.2506971135735512e-02</internalNodes>
          <leafValues>
            2.6349493861198425e-01 -7.4437958002090454e-01</leafValues></_>
        <_>
          <internalNodes>
            0 -1 96 -1.4128179289400578e-02</internalNodes>
          <leafValues>
            -9.3729317188262939e-01 2.0421648025512695e-01</leafValues></_></weakClassifiers></_>
    <!-- stage 1 -->
    <_>
      <maxWeakCount>6</maxWeakCount>
      <stageThreshold>-1.1151025295257568e+00</stageThreshold>
      <weakClassifiers>
        <_>
          <internalNodes>
            0 -1 158 5.0472922623157501e-02</internalNodes>
          <leafValues>
            -7.0232558250427246e-01 3.1999999284744263e-01</leafValues></_>
        <_>
          <internalNodes>
            0 -1 38 -6.5434463322162628e-03</internalNodes>
          <leafValues>
            2.2904194891452789e-01 -7.4093359708786011e-01</leafValues></_>
        <_>
          <internalNodes>
            0 -1 138 -6.5115876495838165e-03</internalNodes>
          <leafValues>
            7.1792536973953247e-01 -2.9720216989517212e-01</leafValues></_>
        <_>
          <internalNodes>
            0 -1 40 -4.8906228039413691e-04</internalNodes>
          <leafValues>
            -8.2429367303848267e-01 2.0399497449398041e-01</leafValues></_>
        <_>
          <internalNodes>
            0 -1 41 -5.5721420794725418e-03</internalNodes>
          <leafValues>
            1.9189418852329254e-01 -8.1338542699813843e-01</leafValues></_>
        <_>
          <internalNodes>
            0 -1 159 2.7631586417555809e-03</internalNodes>
          <leafValues>
            -5.0117439031600952e-01 2.8778275847434998e-01</leafValues></_></weakClassifiers></_>
    <!-- stage 2 -->
    <_>
      <maxWeakCount>9</maxWeakCount>
      <stageThreshold>-1.2281696796417236e+00</stageThreshold>
      <weakClassifiers>
        <_>
          <internalNodes>
            0 -1 143 -1.6058391192927957e-03</internalNodes>
          <leafValues>
            -5.9274190664291382e-01 7.0588237047195435e-01</leafValues></_>
        <_>
          <internalNodes>
            0 -1 119 7.6971938833594322e-03</internalNodes>
          <leafValues>
            -2.7710080146789551e-01 6.2114912271499634e-01</leafValues></_>
        <_>
          <internalNodes>
            0 -1 148 5.2085354924201965e-02</internalNodes>
          <leafValues>
            -3.1391832232475281e-01 4.2490807175636292e-01</leafValues></_>
        <_>
          <internalNodes>
            0 -1 4 1.5779845416545868e-02</internalNodes>
          <leafValues>
            -1.6107101738452911e-01 7.9282826185226440e-01</leafValues></_>
        <_>
          <internalNodes>
            0 -1 190 -8.1505713751539588e-04</internalNodes>
          <leafValues>
            -6.3332241773605347e-01 2.3787908256053925e-01</leafValues></_>
        <_>
          <internalNodes>
            0 -1 80 -3.0372451990842819e-02</internalNodes>
          <leafValues>
            7.4852740764617920e-01 -1.7395752668380737e-01</leafValues></_>
        <_>
          <internalNodes>
            0 -1 120 7.1993824094533920e-03</internalNodes>
          <leafValues>
            -1.6873891651630402e-01 6.4235055446624756e-01</leafValues></_>
        <_>
          <internalNodes>
            0 -1 102 -4.7368824016302824e-04</internalNodes>
          <leafValues>
            -6.3934922218322754e-01 1.9787307083606720e-01</leafValues></_>
        <_>
          <internalNodes>
            0 -1 182 -4.7003146028146148e-04</internalNodes>
          <leafValues>
            -9.0861964225769043e-01 1.2200260907411575e-01</leafValues></_></weakClassifiers></_>
    <!-- stage 3 -->
    <_>
      <maxWeakCount>7</maxWeakCount>
      <stageThreshold>-1.0479615926742554e+00</stageThreshold>
      <weakClassifiers>
        <_>
          <internalNodes>
            0 -1 101 -2.1789807826280594e-02</internalNodes>
          <leafValues>
            -6.7356324195861816e-01 2.4210526049137115e-01</leafValues></_>
        <_>
          <internalNodes>
            0 -1 180 2.5686731096357107e-03</internalNodes>
          <leafValues>
            -2.6631200313568115e-01 6.0470145940780640e-01</leafValues></_>
        <_>
          <internalNodes>
            0 -1 54 -3.6064742016606033e-04</internalNodes>
          <leafValues>
            -7.0167142152786255e-01 1.7771817743778229e-01</leafValues></_>
        <_>
          <internalNodes>
            0 -1 57 -8.8264212012290955e-02</internalNodes>
          <leafValues>
            -5.5908149480819702e-01 2.2677634656429291e-01</leafValues></_>
        <_>
          <internalNodes>
            0 -1 134 1.7407223582267761e-02</internalNodes>
          <leafValues>
            -3.6802858114242554e-01 4.2186287045478821e-01</leafValues></_>
        <_>
          <internalNodes>
            0 -1 54 3.0082050943747163e-04</internalNodes>
          <leafValues>
            2.5439608097076416e-01 -6.9335120916366577e-01</leafValues></_>
        <_>
          <internalNodes>
            0 -1 105 -1.3182316906750202e-02</internalNodes>
          <leafValues>
            8.8380384445190430e-01 -2.4109247326850891e-01</leafValues></_></weakClassifiers></_>
    <!-- stage 4 -->
    <_>
      <maxWeakCount>7</maxWeakCount>
      <stageThreshold>-1.3208391666412354e+00</stageThreshold>
      <weakClassifiers>
        <_>
          <internalNodes>
            0 -1 78 -1.4340019226074219e-01</internalNodes>
          <leafValues>
            -7.5890409946441650e-01 4.2424242943525314e-02</leafValues></_>
        <_>
          <internalNodes>
            0 -1 118 -3.6392216570675373e-03</internalNodes>
          <leafValues>
            5.2661341428756714e-01 -3.8646596670150757e-01</leafValues></_>
        <_>
          <internalNodes>
            0 -1 19 -9.4031997025012970e-02</internalNodes>
          <leafValues>
            -9.5382225513458252e-01 1.6476906836032867e-01</leafValues></_>
        <_>
          <internalNodes>
            0 -1 50 -2.9480131343007088e-03</internalNodes>
          <leafValues>
            6.3992220163345337e-01 -2.6668646931648254e-01</leafValues></_>
        <_>
          <internalNodes>
            0 -1 174 3.6662540514953434e-04</internalNodes>
          <leafValues>
            -3.1041300296783447e-01 5.3323489427566528e-01</leafValues></_>
        <_>
          <internalNodes>
            0 -1 1 -4.2942035943269730e-03</internalNodes>
          <leafValues>
            4.4664439558982849e-01 -3.2779955863952637e-01</leafValues></_>
        <_>
          <internalNodes>
            0 -1 79 -5.2053174003958702e-03</internalNodes>
          <leafValues>
            7.3518544435501099e-01 -2.0978303253650665e-01</leafValues></_></weakClassifiers></_>
    <!-- stage 5 -->
    <_>
      <maxWeakCount>5</maxWeakCount>
      <stageThreshold>-1.5251353979110718e+00</stageThreshold>
      <weakClassifiers>
        <_>
          <internalNodes>
            0 -1 175 7.4206097051501274e-03</internalNodes>
          <leafValues>
            -7.9002624750137329e-01 2.0805369317531586e-01</leafValues></_>
        <_>
          <internalNodes>
            0 -1 178 3.2917756470851600e-05</internalNodes>
          <leafValues>
            -5.0100177526473999e-01 4.3648606538772583e-01</leafValues></_>
        <_>
          <internalNodes>
            0 -1 63 -8.0216504633426666e-02</internalNodes>
          <leafValues>
            -4.7665959596633911e-01 3.8677865266799927e-01</leafValues></_>
        <_>
          <internalNodes>
            0 -1 75 -1.9674807845149189e-05</internalNodes>
          <leafValues>
            5.6347006559371948e-01 -3.7836447358131409e-01</leafValues></_>
        <_>
          <internalNodes>
            0 -1 177 -1.1381538570276462e-05</internalNodes>
          <leafValues>
            5.4734593629837036e-01 -3.2091781497001648e-01</leafValues></_></weakClassifiers></_>
    <!-- stage 6 -->
    <_>
      <maxWeakCount>8</maxWeakCount>
      <stageThreshold>-1.4383918046951294e+00</stageThreshold>
      <weakClassifiers>
        <_>
          <internalNodes>
            0 -1 18 -1.9363971427083015e-02</internalNodes>
          <leafValues>
            1.1940298229455948e-01 -7.2222220897674561e-01</leafValues></_>
        <_>
          <internalNodes>
            0 -1 131 7.8628727351315320e-05</internalNodes>
          <leafValues>
            -3.9159968495368958e-01 4.2303630709648132e-01</leafValues></_>
        <_>
          <internalNodes>
            0 -1 165 -6.4744604751467705e-03</internalNodes>
          <leafValues>
            -2.9972767829895020e-01 5.5738449096679688e-01</leafValues></_>
        <_>
          <internalNodes>
            0 -1 95 3.3185601932927966e-04</internalNodes>
          <leafValues>
            -2.3132698237895966e-01 5.8810776472091675e-01</leafValues></_>
        <_>
          <internalNodes>
            0 -1 125 -8.9990695414599031e-05</internalNodes>
          <leafValues>
            5.6093060970306396e-01 -2.6471576094627380e-01</leafValues></_>
        <_>
          <internalNodes>
            0 -1 170 -2.9419619590044022e-02</internalNodes>
          <leafValues>
            8.5653692483901978e-01 -1.4878462255001068e-01</leafValues></_>
        <_>
          <internalNodes>
            0 -1 30 -3.5652171820402145e-02</internalNodes>
          <leafValues>
            -6.8972933292388916e-01 2.4193669855594635e-01</leafValues></_>
        <_>
          <internalNodes>
            0 -1 67 -1.6566458725719713e-05</internalNodes>
          <leafValues>
            4.8406812548637390e-01 -3.5261464118957520e-01</leafValues></_></weakClassifiers></_>
    <!-- stage 7 -->
    <_>
      <maxWeakCount>6</maxWeakCount>
      <stageThreshold>-1.0578902959823608e+00</stageThreshold>
      <weakClassifiers>
        <_>
          <internalNodes>
            0 -1 94 -1.2524528428912163e-02</internalNodes>
          <leafValues>
            2.8947368264198303e-01 -6.4317178726196289e-01</leafValues></_>
        <_>
          <internalNodes>
            0 -1 25 -4.5375674962997437e-02</internalNodes>
          <leafValues>
            5.2317041158676147e-01 -3.0017912387847900e-01</leafValues></_>
        <_>
          <internalNodes>
            0 -1 72 1.0378403589129448e-02</internalNodes>
          <leafValues>
            -2.2369864583015442e-01 6.7061829566955566e-01</leafValues></_>
        <_>
          <internalNodes>
            0 -1 29 -7.5149338226765394e-04</internalNodes>
          <leafValues>
            1.7224974930286407e-01 -8.9744466543197632e-01</leafValues></_>
        <_>
          <internalNodes>
            0 -1 9 1.0399547219276428e-01</internalNodes>
          <leafValues>
            -3.5786938667297363e-01 5.2110111713409424e-01</leafValues></_>
        <_>
          <internalNodes>
            0 -1 99 -3.2376687973737717e-02</internalNodes>
          <leafValues>
            4.0651816129684448e-01 -3.3784666657447815e-01</leafValues></_></weakClassifiers></_>
    <!-- stage 8 -->
    <_>
      <maxWeakCount>7</maxWeakCount>
      <stageThreshold>-8.4531038999557495e-01</stageThreshold>
      <weakClassifiers>
        <_>
          <internalNodes>
            0 -1 17 -5.0759387016296387e-01</internalNodes>
          <leafValues>
            4.4680851697921753e-01 -6.0248446464538574e-01</leafValues></_>
        <_>
          <internalNodes>
            0 -1 53 -9.6551119349896908e-04</internalNodes>
          <leafValues>
            -9.4885194301605225e-01 9.1357141733169556e-02</leafValues></_>
        <_>
          <internalNodes>
            0 -1 77 4.6154434676282108e-04</internalNodes>
          <leafValues>
            1.1459382623434067e-01 -9.1256600618362427e-01</leafValues></_>
        <_>
          <internalNodes>
            0 -1 75 -4.2750983266159892e-04</internalNodes>
          <leafValues>
            -6.6095286607742310e-01 1.7835561931133270e-01</leafValues></_>
        <_>
          <internalNodes>
            0 -1 185 -1.2510127853602171e-03</internalNodes>
          <leafValues>
            1.7576748132705688e-01 -8.2060474157333374e-01</leafValues></_>
        <_>
          <internalNodes>
            0 -1 112 9.5373811200261116e-04</internalNodes>
          <leafValues>
            1.4665839076042175e-01 -8.9900833368301392e-01</leafValues></_>
        <_>
          <internalNodes>
            0 -1 113 -9.5226685516536236e-04</internalNodes>
          <leafValues>
            -8.8951855897903442e-01 9.6108317375183105e-02</leafValues></_></weakClassifiers></_>
    <!-- stage 9 -->
    <_>
      <maxWeakCount>9</maxWeakCount>
      <stageThreshold>-1.0483303070068359e+00</stageThreshold>
      <weakClassifiers>
        <_>
          <internalNodes>
            0 -1 89 -9.5236390829086304e-02</internalNodes>
          <leafValues>
            7.2727274894714355e-01 -5.6299215555191040e-01</leafValues></_>
        <_>
          <internalNodes>
            0 -1 168 -6.5394728444516659e-03</internalNodes>
          <leafValues>
            3.0082234740257263e-01 -4.2866709828376770e-01</leafValues></_>
        <_>
          <internalNodes>
            0 -1 187 -5.7755736634135246e-03</internalNodes>
          <leafValues>
            2.0198239386081696e-01 -6.2004190683364868e-01</leafValues></_>
        <_>
          <internalNodes>
            0 -1 58 -7.3917545378208160e-02</internalNodes>
          <leafValues>
            5.9385591745376587e-01 -1.7416879534721375e-01</leafValues></_>
        <_>
          <internalNodes>
            0 -1 126 -7.5204670429229736e-03</internalNodes>
          <leafValues>
            5.2973800897598267e-01 -2.4211156368255615e-01</leafValues></_>
        <_>
          <internalNodes>
            0 -1 12 3.3079892396926880e-02</internalNodes>
          <leafValues>
            -1.5549130737781525e-01 6.9972103834152222e-01</leafValues></_>
        <_>
          <internalNodes>
            0 -1 146 4.5442664995789528e-03</internalNodes>
          <leafValues>
            -3.0905318260192871e-01 3.9669761061668396e-01</leafValues></_>
        <_>
          <internalNodes>
            0 -1 160 -3.6706957034766674e-03</internalNodes>
          <leafValues>
            -8.6495703458786011e-01 1.6558469831943512e-01</leafValues></_>
        <_>
          <internalNodes>
            0 -1 43 9.7121089696884155e-02</internalNodes>
          <leafValues>
            -1.9898930191993713e-01 7.1542423963546753e-01</leafValues></_></weakClassifiers></_>
    <!-- stage 10 -->
    <_>
      <maxWeakCount>11</maxWeakCount>
      <stageThreshold>-1.3570029735565186e+00</stageThreshold>
      <weakClassifiers>
        <_>
          <internalNodes>
            0 -1 129 -2.6691774837672710e-04</internalNodes>
          <leafValues>
            -5.5642020702362061e-01 1.</leafValues></_>
        <_>
          <internalNodes>
            0 -1 176 -2.8780559077858925e-03</internalNodes>
          <leafValues>
            8.7260581552982330e-02 -8.1441217660903931e-01</leafValues></_>
        <_>
          <internalNodes>
            0 -1 22 1.6344499308615923e-03</internalNodes>
          <leafValues>
            1.2885646522045135e-01 -8.1967931985855103e-01</leafValues></_>
        <_>
          <internalNodes>
            0 -1 3 -2.7146204374730587e-03</internalNodes>
          <leafValues>
            1.0215276479721069e-01 -8.3229964971542358e-01</leafValues></_>
        <_>
          <internalNodes>
            0 -1 26 2.1004942059516907e-01</internalNodes>
          <leafValues>
            8.7716653943061829e-02 -1.</leafValues></_>
        <_>
          <internalNodes>
            0 -1 166 7.1210980415344238e-02</internalNodes>
          <leafValues>
            -2.6258233189582825e-01 5.0127249956130981e-01</leafValues></_>
        <_>
          <internalNodes>
            0 -1 39 -4.0979895740747452e-02</internalNodes>
          <leafValues>
            -6.6846328973770142e-01 1.9410057365894318e-01</leafValues></_>
        <_>
          <internalNodes>
            0 -1 66 -7.1267168968915939e-03</internalNodes>
          <leafValues>
            7.2846257686614990e-01 -1.5019437670707703e-01</leafValues></_>
        <_>
          <internalNodes>
            0 -1 163 3.3349846489727497e-04</internalNodes>
          <leafValues>
            -3.4864720702171326e-01 3.7722229957580566e-01</leafValues></_>
        <_>
          <internalNodes>
            0 -1 98 2.0570021122694016e-02</internalNodes>
          <leafValues>
            1.8285997211933136e-01 -6.8591558933258057e-01</leafValues></_>
        <_>
          <internalNodes>
            0 -1 45 -5.0581149756908417e-02</internalNodes>
          <leafValues>
            -7.2391939163208008e-01 1.2643001973628998e-01</leafValues></_></weakClassifiers></_>
    <!-- stage 11 -->
    <_>
      <maxWeakCount>9</maxWeakCount>
      <stageThreshold>-1.0535058975219727e+00</stageThreshold>
      <weakClassifiers>
        <_>
          <internalNodes>
            0 -1 90 -1.3135186163708568e-03</internalNodes>
          <leafValues>
            -5.7623761892318726e-01 8.3999997377395630e-01</leafValues></_>
        <_>
          <internalNodes>
            0 -1 155 3.1874667853116989e-02</internalNodes>
          <leafValues>
            -3.8933324813842773e-01 2.8464251756668091e-01</leafValues></_>
        <_>
          <internalNodes>
            0 -1 111 2.8127576224505901e-03</internalNodes>
          <leafValues>
            1.1566977202892303e-01 -9.0260481834411621e-01</leafValues></_>
        <_>
          <internalNodes>
            0 -1 0 -2.0986148715019226e-01</internalNodes>
          <leafValues>
            -8.7656396627426147e-01 1.1571007966995239e-01</leafValues></_>
        <_>
          <internalNodes>
            0 -1 167 3.5065531730651855e-02</internalNodes>
          <leafValues>
            1.3799065351486206e-01 -6.4951789379119873e-01</leafValues></_>
        <_>
          <internalNodes>
            0 -1 23 -3.3215261064469814e-03</internalNodes>
          <leafValues>
            4.4777086377143860e-01 -2.6137390732765198e-01</leafValues></_>
        <_>
          <internalNodes>
            0 -1 51 -9.0110779274255037e-04</internalNodes>
          <leafValues>
            -3.8436564803123474e-01 2.5860825181007385e-01</leafValues></_>
        <_>
          <internalNodes>
            0 -1 188 9.9003612995147705e-03</internalNodes>
          <leafValues>
            -1.0421140491962433e-01 8.6708265542984009e-01</leafValues></_>
        <_>
          <internalNodes>
            0 -1 108 2.5425772182643414e-03</internalNodes>
          <leafValues>
            -3.5032847523689270e-01 2.9666092991828918e-01</leafValues></_></weakClassifiers></_>
    <!-- stage 12 -->
    <_>
      <maxWeakCount>13</maxWeakCount>
      <stageThreshold>-1.0963733196258545e+00</stageThreshold>
      <weakClassifiers>
        <_>
          <internalNodes>
            0 -1 60 -7.0096448063850403e-02</internalNodes>
          <leafValues>
            8.8888891041278839e-02 -6.3181817531585693e-01</leafValues></_>
        <_>
          <internalNodes>
            0 -1 69 -1.0668326169252396e-02</internalNodes>
          <leafValues>
            4.8174849152565002e-01 -2.3541222512722015e-01</leafValues></_>
        <_>
          <internalNodes>
            0 -1 27 -1.1109877377748489e-02</internalNodes>
          <leafValues>
            3.9080080389976501e-01 -2.3806315660476685e-01</leafValues></_>
        <_>
          <internalNodes>
            0 -1 123 -5.0712376832962036e-03</internalNodes>
          <leafValues>
            3.8022133708000183e-01 -2.3747369647026062e-01</leafValues></_>
        <_>
          <internalNodes>
            0 -1 147 2.7159056116943248e-05</internalNodes>
          <leafValues>
            -2.9594510793685913e-01 3.1049224734306335e-01</leafValues></_>
        <_>
          <internalNodes>
            0 -1 130 -1.0970832407474518e-01</internalNodes>
          <leafValues>
            -7.9065549373626709e-01 1.0544890910387039e-01</leafValues></_>
        <_>
          <internalNodes>
            0 -1 124 8.7216623127460480e-02</internalNodes>
          <leafValues>
            8.8650241494178772e-02 -9.3136173486709595e-01</leafValues></_>
        <_>
          <internalNodes>
            0 -1 20 1.5384319238364697e-02</internalNodes>
          <leafValues>
            -1.4192964136600494e-01 6.5536427497863770e-01</leafValues></_>
        <_>
          <internalNodes>
            0 -1 106 -2.1775871515274048e-02</internalNodes>
          <leafValues>
            -1.5672938525676727e-01 5.5878990888595581e-01</leafValues></_>
        <_>
          <internalNodes>
            0 -1 74 4.3685027048923075e-04</internalNodes>
          <leafValues>
            -2.4282699823379517e-01 3.6147806048393250e-01</leafValues></_>
        <_>
          <internalNodes>
            0 -1 192 3.6001685657538474e-04</internalNodes>
          <leafValues>
            1.8643939495086670e-01 -5.3915786743164063e-01</leafValues></_>
        <_>
          <internalNodes>
            0 -1 62 2.7673935983330011e-03</internalNodes>
          <leafValues>
            -2.6288029551506042e-01 3.3580812811851501e-01</leafValues></_>
        <_>
          <internalNodes>
            0 -1 82 -8.2276791334152222e-02</internalNodes>
          <leafValues>
            7.8109031915664673e-01 -1.5910007059574127e-01</leafValues></_></weakClassifiers></_>
    <!-- stage 13 -->
    <_>
      <maxWeakCount>9</maxWeakCount>
      <stageThreshold>-1.2762397527694702e+00</stageThreshold>
      <weakClassifiers>
        <_>
          <internalNodes>
            0 -1 169 4.4919759035110474e-02</internalNodes>
          <leafValues>
            -6.5841585397720337e-01 -3.1746033579111099e-02</leafValues></_>
        <_>
          <internalNodes>
            0 -1 154 -1.5979493036866188e-03</internalNodes>
          <leafValues>
            3.8394820690155029e-01 -3.3177804946899414e-01</leafValues></_>
        <_>
          <internalNodes>
            0 -1 48 -1.4816980808973312e-02</internalNodes>
          <leafValues>
            4.2261514067649841e-01 -2.4467407166957855e-01</leafValues></_>
        <_>
          <internalNodes>
            0 -1 122 -3.7803405430167913e-03</internalNodes>
          <leafValues>
            4.4694921374320984e-01 -1.9995330274105072e-01</leafValues></_>
        <_>
          <internalNodes>
            0 -1 150 3.6459244787693024e-02</internalNodes>
          <leafValues>
            -2.6323169469833374e-01 3.2637238502502441e-01</leafValues></_>
        <_>
          <internalNodes>
            0 -1 121 5.0917835906147957e-03</internalNodes>
          <leafValues>
            -2.2937509417533875e-01 4.0522545576095581e-01</leafValues></_>
        <_>
          <internalNodes>
            0 -1 76 7.0323003455996513e-05</internalNodes>
          <leafValues>
            -2.6459130644798279e-01 3.2974630594253540e-01</leafValues></_>
        <_>
          <internalNodes>
            0 -1 97 1.1731993407011032e-02</internalNodes>
          <leafValues>
            1.5289773046970367e-01 -8.2300710678100586e-01</leafValues></_>
        <_>
          <internalNodes>
            0 -1 52 -2.8695994988083839e-03</internalNodes>
          <leafValues>
            5.0398403406143188e-01 -2.1344618499279022e-01</leafValues></_></weakClassifiers></_>
    <!-- stage 14 -->
    <_>
      <maxWeakCount>11</maxWeakCount>
      <stageThreshold>-1.0835940837860107e+00</stageThreshold>
      <weakClassifiers>
        <_>
          <internalNodes>
            0 -1 68 -9.6310898661613464e-03</internalNodes>
          <leafValues>
            3.1999999284744263e-01 -5.9583336114883423e-01</leafValues></_>
        <_>
          <internalNodes>
            0 -1 87 -4.9640375375747681e-01</internalNodes>
          <leafValues>
            -7.6787555217742920e-01 1.1830034852027893e-01</leafValues></_>
        <_>
          <internalNodes>
            0 -1 191 3.7373647501226515e-05</internalNodes>
          <leafValues>
            -2.8368675708770752e-01 4.4441547989845276e-01</leafValues></_>
        <_>
          <internalNodes>
            0 -1 151 -5.9898615290876478e-05</internalNodes>
          <leafValues>
            4.1257798671722412e-01 -2.8647783398628235e-01</leafValues></_>
        <_>
          <internalNodes>
            0 -1 145 -3.9904649020172656e-04</internalNodes>
          <leafValues>
            6.0615205764770508e-01 -1.6379117965698242e-01</leafValues></_>
        <_>
          <internalNodes>
            0 -1 109 -7.6555013656616211e-03</internalNodes>
          <leafValues>
            6.6569018363952637e-01 -1.5533535182476044e-01</leafValues></_>
        <_>
          <internalNodes>
            0 -1 21 -8.8806435465812683e-02</internalNodes>
          <leafValues>
            -5.9053623676300049e-01 2.3030477762222290e-01</leafValues></_>
        <_>
          <internalNodes>
            0 -1 173 -1.9093770533800125e-03</internalNodes>
          <leafValues>
            6.8362021446228027e-01 -1.7242184281349182e-01</leafValues></_>
        <_>
          <internalNodes>
            0 -1 161 -2.7552741812542081e-05</internalNodes>
          <leafValues>
            3.9462339878082275e-01 -2.7369898557662964e-01</leafValues></_>
        <_>
          <internalNodes>
            0 -1 141 1.5187915414571762e-03</internalNodes>
          <leafValues>
            1.6779898107051849e-01 -7.6955205202102661e-01</leafValues></_>
        <_>
          <internalNodes>
            0 -1 7 -1.1700956383720040e-03</internalNodes>
          <leafValues>
            8.3380329608917236e-01 -1.6429689526557922e-01</leafValues></_></weakClassifiers></_>
    <!-- stage 15 -->
    <_>
      <maxWeakCount>8</maxWeakCount>
      <stageThreshold>-1.0995054244995117e+00</stageThreshold>
      <weakClassifiers>
        <_>
          <internalNodes>
            0 -1 152 1.1786366812884808e-02</internalNodes>
          <leafValues>
            -5.4990214109420776e-01 5.7894736528396606e-01</leafValues></_>
        <_>
          <internalNodes>
            0 -1 85 -5.7664802297949791e-03</internalNodes>
          <leafValues>
            -7.5012260675430298e-01 4.2945642024278641e-02</leafValues></_>
        <_>
          <internalNodes>
            0 -1 140 -1.6881752526387572e-03</internalNodes>
          <leafValues>
            -5.6490349769592285e-01 1.4969684183597565e-01</leafValues></_>
        <_>
          <internalNodes>
            0 -1 8 -1.8305695848539472e-03</internalNodes>
          <leafValues>
            2.9957956075668335e-01 -2.5940653681755066e-01</leafValues></_>
        <_>
          <internalNodes>
            0 -1 81 -6.4899865537881851e-03</internalNodes>
          <leafValues>
            4.4457903504371643e-01 -1.8503092229366302e-01</leafValues></_>
        <_>
          <internalNodes>
            0 -1 70 -1.0329028964042664e-01</internalNodes>
          <leafValues>
            -8.8070690631866455e-01 8.9672856032848358e-02</leafValues></_>
        <_>
          <internalNodes>
            0 -1 65 -2.3054089397192001e-03</internalNodes>
          <leafValues>
            6.7962542176246643e-02 -9.5529687404632568e-01</leafValues></_>
        <_>
          <internalNodes>
            0 -1 136 1.0771419852972031e-02</internalNodes>
          <leafValues>
            -3.7045326828956604e-01 2.2594466805458069e-01</leafValues></_></weakClassifiers></_>
    <!-- stage 16 -->
    <_>
      <maxWeakCount>12</maxWeakCount>
      <stageThreshold>-1.1929421424865723e+00</stageThreshold>
      <weakClassifiers>
        <_>
          <internalNodes>
            0 -1 91 -2.1803206764161587e-03</internalNodes>
          <leafValues>
            -5.6078433990478516e-01 8.0000001192092896e-01</leafValues></_>
        <_>
          <internalNodes>
            0 -1 16 -1.0311845690011978e-03</internalNodes>
          <leafValues>
            1.4874292910099030e-01 -5.1027411222457886e-01</leafValues></_>
        <_>
          <internalNodes>
            0 -1 104 1.1916705407202244e-03</internalNodes>
          <leafValues>
            -1.5196023881435394e-01 5.0117057561874390e-01</leafValues></_>
        <_>
          <internalNodes>
            0 -1 135 2.1204808726906776e-03</internalNodes>
          <leafValues>
            9.9152028560638428e-02 -8.7629842758178711e-01</leafValues></_>
        <_>
          <internalNodes>
            0 -1 42 9.8314490169286728e-03</internalNodes>
          <leafValues>
            -8.3415560424327850e-02 9.0379118919372559e-01</leafValues></_>
        <_>
          <internalNodes>
            0 -1 13 3.0360639357240871e-05</internalNodes>
          <leafValues>
            -2.6540189981460571e-01 3.0506169795989990e-01</leafValues></_>
        <_>
          <internalNodes>
            0 -1 110 -6.8746143952012062e-03</internalNodes>
          <leafValues>
            3.3415845036506653e-01 -2.4761471152305603e-01</leafValues></_>
        <_>
          <internalNodes>
            0 -1 128 -6.6655986011028290e-03</internalNodes>
          <leafValues>
            -9.6532088518142700e-01 1.1977253109216690e-01</leafValues></_>
        <_>
          <internalNodes>
            0 -1 116 7.1559843490831554e-05</internalNodes>
          <leafValues>
            -2.8984075784683228e-01 2.7682563662528992e-01</leafValues></_>
        <_>
          <internalNodes>
            0 -1 171 -2.2791489027440548e-03</internalNodes>
          <leafValues>
            -6.0059797763824463e-01 1.6985601186752319e-01</leafValues></_>
        <_>
          <internalNodes>
            0 -1 139 4.6350699849426746e-03</internalNodes>
          <leafValues>
            -1.8863286077976227e-01 4.8285916447639465e-01</leafValues></_>
        <_>
          <internalNodes>
            0 -1 100 -4.3756635859608650e-03</internalNodes>
          <leafValues>
            -6.7291986942291260e-01 1.4573815464973450e-01</leafValues></_></weakClassifiers></_>
    <!-- stage 17 -->
    <_>
      <maxWeakCount>14</maxWeakCount>
      <stageThreshold>-9.7921067476272583e-01</stageThreshold>
      <weakClassifiers>
        <_>
          <internalNodes>
            0 -1 55 1.8935076892375946e-02</internalNodes>
          <leafValues>
            -5.5078125000000000e-01 6.6666668653488159e-01</leafValues></_>
        <_>
          <internalNodes>
            0 -1 46 -1.9663576036691666e-02</internalNodes>
          <leafValues>
            2.5747576355934143e-01 -2.9546380043029785e-01</leafValues></_>
        <_>
          <internalNodes>
            0 -1 36 2.0386323332786560e-02</internalNodes>
          <leafValues>
            8.6294740438461304e-02 -1.</leafValues></_>
        <_>
          <internalNodes>
            0 -1 10 2.8439071029424667e-02</internalNodes>
          <leafValues>
            -1.2603197991847992e-01 6.5426838397979736e-01</leafValues></_>
        <_>
          <internalNodes>
            0 -1 183 5.9650791808962822e-04</internalNodes>
          <leafValues>
            -1.6601669788360596e-01 4.6433752775192261e-01</leafValues></_>
        <_>
          <internalNodes>
            0 -1 44 -5.1946640014648438e-02</internalNodes>
          <leafValues>
            -6.6338616609573364e-01 1.1857171356678009e-01</leafValues></_>
        <_>
          <internalNodes>
            0 -1 132 2.0879598741885275e-04</internalNodes>
          <leafValues>
            -2.5415128469467163e-01 3.0722692608833313e-01</leafValues></_>
        <_>
          <internalNodes>
            0 -1 184 -6.4298501238226891e-03</internalNodes>
          <leafValues>
            -1.6441768407821655e-01 4.5863801240921021e-01</leafValues></_>
        <_>
          <internalNodes>
            0 -1 28 1.0991776362061501e-02</internalNodes>
          <leafValues>
            1.1003504693508148e-01 -6.9696366786956787e-01</leafValues></_>
        <_>
          <internalNodes>
            0 -1 107 -1.0135192424058914e-03</internalNodes>
          <leafValues>
            3.4754812717437744e-01 -2.2065225243568420e-01</leafValues></_>
        <_>
          <internalNodes>
            0 -1 179 5.0439247861504555e-03</internalNodes>
          <leafValues>
            -2.8842979669570923e-01 3.0804452300071716e-01</leafValues></_>
        <_>
          <internalNodes>
            0 -1 24 -6.7575969733297825e-03</internalNodes>
          <leafValues>
            7.0093369483947754e-01 -1.2835904955863953e-01</leafValues></_>
        <_>
          <internalNodes>
            0 -1 37 -2.8814648976549506e-04</internalNodes>
          <leafValues>
            -5.1081216335296631e-01 1.9698494672775269e-01</leafValues></_>
        <_>
          <internalNodes>
            0 -1 162 3.1351559300674126e-05</internalNodes>
          <leafValues>
            -3.0600574612617493e-01 2.8308272361755371e-01</leafValues></_></weakClassifiers></_>
    <!-- stage 18 -->
    <_>
      <maxWeakCount>8</maxWeakCount>
      <stageThreshold>-9.5962625741958618e-01</stageThreshold>
      <weakClassifiers>
        <_>
          <internalNodes>
            0 -1 142 -5.7644527405500412e-02</internalNodes>
          <leafValues>
            5.4545456171035767e-01 -5.5511808395385742e-01</leafValues></_>
        <_>
          <internalNodes>
            0 -1 164 1.2407838949002326e-04</internalNodes>
          <leafValues>
            -3.6934563517570496e-01 1.4163540303707123e-01</leafValues></_>
        <_>
          <internalNodes>
            0 -1 103 -1.1635506234597415e-04</internalNodes>
          <leafValues>
            2.4892848730087280e-01 -2.7505019307136536e-01</leafValues></_>
        <_>
          <internalNodes>
            0 -1 181 -1.9670468755066395e-03</internalNodes>
          <leafValues>
            4.8445075750350952e-01 -1.5330356359481812e-01</leafValues></_>
        <_>
          <internalNodes>
            0 -1 67 3.2193641527555883e-04</internalNodes>
          <leafValues>
            1.1076073348522186e-01 -7.6583629846572876e-01</leafValues></_>
        <_>
          <internalNodes>
            0 -1 56 -2.5892728567123413e-01</internalNodes>
          <leafValues>
            -2.0511382818222046e-01 3.5716676712036133e-01</leafValues></_>
        <_>
          <internalNodes>
            0 -1 73 3.2620992511510849e-02</internalNodes>
          <leafValues>
            -1.5655381977558136e-01 5.3287881612777710e-01</leafValues></_>
        <_>
          <internalNodes>
            0 -1 88 -1.7556229606270790e-02</internalNodes>
          <leafValues>
            3.5896214842796326e-01 -2.2306348383426666e-01</leafValues></_></weakClassifiers></_>
    <!-- stage 19 -->
    <_>
      <maxWeakCount>10</maxWeakCount>
      <stageThreshold>-1.1020733118057251e+00</stageThreshold>
      <weakClassifiers>
        <_>
          <internalNodes>
            0 -1 2 -1.8160119652748108e-02</internalNodes>
          <leafValues>
            -6.6666670143604279e-02 -6.1882352828979492e-01</leafValues></_>
        <_>
          <internalNodes>
            0 -1 33 9.1202333569526672e-02</internalNodes>
          <leafValues>
            1.9406048581004143e-02 -1.</leafValues></_>
        <_>
          <internalNodes>
            0 -1 137 -2.9619724955409765e-03</internalNodes>
          <leafValues>
            8.2819163799285889e-02 -8.7771672010421753e-01</leafValues></_>
        <_>
          <internalNodes>
            0 -1 61 3.6439037648960948e-04</internalNodes>
          <leafValues>
            -2.4753043055534363e-01 3.3025702834129333e-01</leafValues></_>
        <_>
          <internalNodes>
            0 -1 35 1.5376735478639603e-02</internalNodes>
          <leafValues>
            -2.3654079437255859e-01 3.4862363338470459e-01</leafValues></_>
        <_>
          <internalNodes>
            0 -1 47 -1.5612824261188507e-01</internalNodes>
          <leafValues>
            6.5740132331848145e-01 -1.1708006262779236e-01</leafValues></_>
        <_>
          <internalNodes>
            0 -1 83 2.7649407275021076e-03</internalNodes>
          <leafValues>
            -3.1284838914871216e-01 3.1266358494758606e-01</leafValues></_>
        <_>
          <internalNodes>
            0 -1 115 1.3149288482964039e-02</internalNodes>
          <leafValues>
            -2.1632537245750427e-01 3.6843419075012207e-01</leafValues></_>
        <_>
          <internalNodes>
            0 -1 15 4.4292569509707391e-04</internalNodes>
          <leafValues>
            1.4775520563125610e-01 -6.0652655363082886e-01</leafValues></_>
        <_>
          <internalNodes>
            0 -1 5 5.8149155229330063e-03</internalNodes>
          <leafValues>
            -2.2841714322566986e-01 4.0944731235504150e-01</leafValues></_></weakClassifiers></_>
    <!-- stage 20 -->
    <_>
      <maxWeakCount>9</maxWeakCount>
      <stageThreshold>-8.9334923028945923e-01</stageThreshold>
      <weakClassifiers>
        <_>
          <internalNodes>
            0 -1 165 -5.9380359016358852e-04</internalNodes>
          <leafValues>
            -5.4563105106353760e-01 7.3333334922790527e-01</leafValues></_>
        <_>
          <internalNodes>
            0 -1 84 -8.2104681059718132e-03</internalNodes>
          <leafValues>
            -9.0833729505538940e-01 3.2901065424084663e-03</leafValues></_>
        <_>
          <internalNodes>
            0 -1 133 -1.8803071230649948e-02</internalNodes>
          <leafValues>
            1.1867718398571014e-01 -6.4048987627029419e-01</leafValues></_>
        <_>
          <internalNodes>
            0 -1 11 -1.0575454682111740e-02</internalNodes>
          <leafValues>
            3.0326649546623230e-01 -2.6791962981224060e-01</leafValues></_>
        <_>
          <internalNodes>
            0 -1 64 -3.2880398794077337e-04</internalNodes>
          <leafValues>
            -5.3520494699478149e-01 1.7057719826698303e-01</leafValues></_>
        <_>
          <internalNodes>
            0 -1 14 5.3526259958744049e-02</internalNodes>
          <leafValues>
            8.8751561939716339e-02 -6.9053202867507935e-01</leafValues></_>
        <_>
          <internalNodes>
            0 -1 71 -4.8529811203479767e-02</internalNodes>
          <leafValues>
            -5.9199297428131104e-01 1.1808202415704727e-01</leafValues></_>
        <_>
          <internalNodes>
            0 -1 31 8.2543000578880310e-02</internalNodes>
          <leafValues>
            -2.0094591379165649e-01 4.0242221951484680e-01</leafValues></_>
        <_>
          <internalNodes>
            0 -1 86 3.4925544168800116e-03</internalNodes>
          <leafValues>
            -1.7013320326805115e-01 4.7400125861167908e-01</leafValues></_></weakClassifiers></_>
    <!-- stage 21 -->
    <_>
      <maxWeakCount>14</maxWeakCount>
      <stageThreshold>-8.9071911573410034e-01</stageThreshold>
      <weakClassifiers>
        <_>
          <internalNodes>
            0 -1 114 -4.8120785504579544e-03</internalNodes>
          <leafValues>
            -5.5511808395385742e-01 5.4545456171035767e-01</leafValues></_>
        <_>
          <internalNodes>
            0 -1 127 7.4445195496082306e-03</internalNodes>
          <leafValues>
            -2.0533150434494019e-01 4.1521283984184265e-01</leafValues></_>
        <_>
          <internalNodes>
            0 -1 49 -5.7115506380796432e-02</internalNodes>
          <leafValues>
            -8.6016106605529785e-01 7.3888979852199554e-02</leafValues></_>
        <_>
          <internalNodes>
            0 -1 144 -6.6549903713166714e-03</internalNodes>
          <leafValues>
            4.0007197856903076e-01 -1.5644215047359467e-01</leafValues></_>
        <_>
          <internalNodes>
            0 -1 172 -8.9967215899378061e-04</internalNodes>
          <leafValues>
            -9.4992953538894653e-01 6.9838225841522217e-02</leafValues></_>
        <_>
          <internalNodes>
            0 -1 59 5.6106000556610525e-05</internalNodes>
          <leafValues>
            -2.6567462086677551e-01 2.9371061921119690e-01</leafValues></_>
        <_>
          <internalNodes>
            0 -1 186 -4.5670845429413021e-04</internalNodes>
          <leafValues>
            4.6764564514160156e-01 -1.5503989160060883e-01</leafValues></_>
        <_>
          <internalNodes>
            0 -1 93 -1.0441958904266357e-02</internalNodes>
          <leafValues>
            -8.2519054412841797e-01 1.0183380544185638e-01</leafValues></_>
        <_>
          <internalNodes>
            0 -1 156 -8.2085002213716507e-04</internalNodes>
          <leafValues>
            2.9720109701156616e-01 -2.4679209291934967e-01</leafValues></_>
        <_>
          <internalNodes>
            0 -1 6 -6.1856351792812347e-02</internalNodes>
          <leafValues>
            -1.2111774832010269e-01 6.6906076669692993e-01</leafValues></_>
        <_>
          <internalNodes>
            0 -1 32 -2.8667219448834658e-03</internalNodes>
          <leafValues>
            1.3887603580951691e-01 -6.7138135433197021e-01</leafValues></_>
        <_>
          <internalNodes>
            0 -1 92 -8.2624936476349831e-04</internalNodes>
          <leafValues>
            3.4444952011108398e-01 -2.3020920157432556e-01</leafValues></_>
        <_>
          <internalNodes>
            0 -1 157 -4.0159554919227958e-04</internalNodes>
          <leafValues>
            3.8661524653434753e-01 -2.2756494581699371e-01</leafValues></_>
        <_>
          <internalNodes>
            0 -1 189 -6.0762022621929646e-03</internalNodes>
          <leafValues>
            -2.1524430811405182e-01 3.9740610122680664e-01</leafValues></_></weakClassifiers></_></stages>
  <features>
    <_>
      <rects>
        <_>
          0 0 24 18 -1.</_>
        <_>
          0 0 12 9 2.</_>
        <_>
          12 9 12 9 2.</_></rects>
      <tilted>0</tilted></_>
    <_>
      <rects>
        <_>
          0 2 6 8 -1.</_>
        <_>
          0 2 3 4 2.</_>
        <_>
          3 6 3 4 2.</_></rects>
      <tilted>0</tilted></_>
    <_>
      <rects>
        <_>
          0 3 4 15 -1.</_>
        <_>
          2 3 2 15 2.</_></rects>
      <tilted>0</tilted></_>
    <_>
      <rects>
        <_>
          0 4 2 3 -1.</_>
        <_>
          0 5 2 1 2.</_></rects>
      <tilted>0</tilted></_>
    <_>
      <rects>
        <_>
          0 4 18 2 -1.</_>
        <_>
          0 5 18 1 2.</_></rects>
      <tilted>0</tilted></_>
    <_>
      <rects>
        <_>
          0 5 6 12 -1.</_>
        <_>
          3 5 3 12 2.</_></rects>
      <tilted>0</tilted></_>
    <_>
      <rects>
        <_>
          0 5 14 9 -1.</_>
        <_>
          0 8 14 3 2.</_></rects>
      <tilted>0</tilted></_>
    <_>
      <rects>
        <_>
          0 6 2 2 -1.</_>
        <_>
          0 6 1 1 2.</_>
        <_>
          1 7 1 1 2.</_></rects>
      <tilted>0</tilted></_>
    <_>
      <rects>
        <_>
          0 6 8 2 -1.</_>
        <_>
          0 7 8 1 2.</_></rects>
      <tilted>0</tilted></_>
    <_>
      <rects>
        <_>
          0 8 16 16 -1.</_>
        <_>
          0 16 16 8 2.</_></rects>
      <tilted>0</tilted></_>
    <_>
      <rects>
        <_>
          0 9 10 7 -1.</_>
        <_>
          5 9 5 7 2.</_></rects>
      <tilted>0</tilted></_>
    <_>
      <rects>
        <_>
          0 10 6 11 -1.</_>
        <_>
          3 10 3 11 2.</_></rects>
      <tilted>0</tilted></_>
    <_>
      <rects>
        <_>
          0 10 23 4 -1.</_>
        <_>
          0 12 23 2 2.</_></rects>
      <tilted>0</tilted></_>
    <_>
      <rects>
        <_>
          0 11 2 2 -1.</_>
        <_>
          0 11 1 1 2.</_>
        <_>
          1 12 1 1 2.</_></rects>
      <tilted>0</tilted></_>
    <_>
      <rects>
        <_>
          0 12 24 8 -1.</_>
        <_>
          0 12 12 4 2.</_>
        <_>
          12 16 12 4 2.</_></rects>
      <tilted>0</tilted></_>
    <_>
      <rects>
        <_>
          0 15 2 1 -1.</_>
        <_>
          1 15 1 1 2.</_></rects>
      <tilted>0</tilted></_>
    <_>
      <rects>
        <_>
          0 15 12 1 -1.</_>
        <_>
          6 15 6 1 2.</_></rects>
      <tilted>0</tilted></_>
    <_>
      <rects>
        <_>
          0 15 24 9 -1.</_>
        <_>
          8 15 8 9 2.</_></rects>
      <tilted>0</tilted></_>
    <_>
      <rects>
        <_>
          0 19 14 3 -1.</_>
        <_>
          7 19 7 3 2.</_></rects>
      <tilted>0</tilted></_>
    <_>
      <rects>
        <_>
          0 20 13 3 -1.</_>
        <_>
          0 21 13 1 2.</_></rects>
      <tilted>0</tilted></_>
    <_>
      <rects>
        <_>
          0 20 23 2 -1.</_>
        <_>
          0 21 23 1 2.</_></rects>
      <tilted>0</tilted></_>
    <_>
      <rects>
        <_>
          0 21 15 3 -1.</_>
        <_>
          0 22 15 1 2.</_></rects>
      <tilted>0</tilted></_>
    <_>
      <rects>
        <_>
          0 23 4 1 -1.</_>
        <_>
          2 23 2 1 2.</_></rects>
      <tilted>0</tilted></_>
    <_>
      <rects>
        <_>
          1 0 10 2 -1.</_>
        <_>
          1 0 5 1 2.</_>
        <_>
          6 1 5 1 2.</_></rects>
      <tilted>0</tilted></_>
    <_>
      <rects>
        <_>
          1 2 10 2 -1.</_>
        <_>
          1 2 5 1 2.</_>
        <_>
          6 3 5 1 2.</_></rects>
      <tilted>0</tilted></_>
    <_>
      <rects>
        <_>
          1 2 18 6 -1.</_>
        <_>
          1 5 18 3 2.</_></rects>
      <tilted>0</tilted></_>
    <_>
      <rects>
        <_>
          1 4 22 20 -1.</_>
        <_>
          1 4 11 10 2.</_>
        <_>
          12 14 11 10 2.</_></rects>
      <tilted>0</tilted></_>
    <_>
      <rects>
        <_>
          1 8 4 15 -1.</_>
        <_>
          3 8 2 15 2.</_></rects>
      <tilted>0</tilted></_>
    <_>
      <rects>
        <_>
          1 8 5 4 -1.</_>
        <_>
          1 10 5 2 2.</_></rects>
      <tilted>0</tilted></_>
    <_>
      <rects>
        <_>
          1 9 3 1 -1.</_>
        <_>
          2 9 1 1 2.</_></rects>
      <tilted>0</tilted></_>
    <_>
      <rects>
        <_>
          1 10 18 1 -1.</_>
        <_>
          7 10 6 1 2.</_></rects>
      <tilted>0</tilted></_>
    <_>
      <rects>
        <_>
          1 13 21 8 -1.</_>
        <_>
          1 17 21 4 2.</_></rects>
      <tilted>0</tilted></_>
    <_>
      <rects>
        <_>
          1 14 6 1 -1.</_>
        <_>
          3 14 2 1 2.</_></rects>
      <tilted>0</tilted></_>
    <_>
      <rects>
        <_>
          1 14 22 10 -1.</_>
        <_>
          1 14 11 5 2.</_>
        <_>
          12 19 11 5 2.</_></rects>
      <tilted>0</tilted></_>
    <_>
      <rects>
        <_>
          1 15 10 7 -1.</_>
        <_>
          6 15 5 7 2.</_></rects>
      <tilted>0</tilted></_>
    <_>
      <rects>
        <_>
          1 15 23 4 -1.</_>
        <_>
          1 17 23 2 2.</_></rects>
      <tilted>0</tilted></_>
    <_>
      <rects>
        <_>
          1 16 20 1 -1.</_>
        <_>
          11 16 10 1 2.</_></rects>
      <tilted>0</tilted></_>
    <_>
      <rects>
        <_>
          1 20 2 1 -1.</_>
        <_>
          2 20 1 1 2.</_></rects>
      <tilted>0</tilted></_>
    <_>
      <rects>
        <_>
          1 21 3 2 -1.</_>
        <_>
          2 21 1 2 2.</_></rects>
      <tilted>0</tilted></_>
    <_>
      <rects>
        <_>
          1 21 22 3 -1.</_>
        <_>
          12 21 11 3 2.</_></rects>
      <tilted>0</tilted></_>
    <_>
      <rects>
        <_>
          1 23 2 1 -1.</_>
        <_>
          2 23 1 1 2.</_></rects>
      <tilted>0</tilted></_>
    <_>
      <rects>
        <_>
          1 23 9 1 -1.</_>
        <_>
          4 23 3 1 2.</_></rects>
      <tilted>0</tilted></_>
    <_>
      <rects>
        <_>
          2 0 10 2 -1.</_>
        <_>
          2 0 5 1 2.</_>
        <_>
          7 1 5 1 2.</_></rects>
      <tilted>0</tilted></_>
    <_>
      <rects>
        <_>
          2 0 20 8 -1.</_>
        <_>
          2 4 20 4 2.</_></rects>
      <tilted>0</tilted></_>
    <_>
      <rects>
        <_>
          2 3 22 8 -1.</_>
        <_>
          2 3 11 4 2.</_>
        <_>
          13 7 11 4 2.</_></rects>
      <tilted>0</tilted></_>
    <_>
      <rects>
        <_>
          2 4 18 5 -1.</_>
        <_>
          11 4 9 5 2.</_></rects>
      <tilted>0</tilted></_>
    <_>
      <rects>
        <_>
          2 7 8 9 -1.</_>
        <_>
          6 7 4 9 2.</_></rects>
      <tilted>0</tilted></_>
    <_>
      <rects>
        <_>
          2 8 15 16 -1.</_>
        <_>
          2 16 15 8 2.</_></rects>
      <tilted>0</tilted></_>
    <_>
      <rects>
        <_>
          2 10 8 12 -1.</_>
        <_>
          2 10 4 6 2.</_>
        <_>
          6 16 4 6 2.</_></rects>
      <tilted>0</tilted></_>
    <_>
      <rects>
        <_>
          2 14 22 6 -1.</_>
        <_>
          2 14 11 3 2.</_>
        <_>
          13 17 11 3 2.</_></rects>
      <tilted>0</tilted></_>
    <_>
      <rects>
        <_>
          2 15 6 1 -1.</_>
        <_>
          5 15 3 1 2.</_></rects>
      <tilted>0</tilted></_>
    <_>
      <rects>
        <_>
          2 20 4 3 -1.</_>
        <_>
          4 20 2 3 2.</_></rects>
      <tilted>0</tilted></_>
    <_>
      <rects>
        <_>
          2 21 9 2 -1.</_>
        <_>
          2 22 9 1 2.</_></rects>
      <tilted>0</tilted></_>
    <_>
      <rects>
        <_>
          2 22 2 2 -1.</_>
        <_>
          2 22 1 1 2.</_>
        <_>
          3 23 1 1 2.</_></rects>
      <tilted>0</tilted></_>
    <_>
      <rects>
        <_>
          2 23 2 1 -1.</_>
        <_>
          3 23 1 1 2.</_></rects>
      <tilted>0</tilted></_>
    <_>
      <rects>
        <_>
          3 0 19 2 -1.</_>
        <_>
          3 1 19 1 2.</_></rects>
      <tilted>0</tilted></_>
    <_>
      <rects>
        <_>
          3 2 16 15 -1.</_>
        <_>
          3 7 16 5 2.</_></rects>
      <tilted>0</tilted></_>
    <_>
      <rects>
        <_>
          3 3 9 6 -1.</_>
        <_>
          3 5 9 2 2.</_></rects>
      <tilted>0</tilted></_>
    <_>
      <rects>
        <_>
          3 4 8 20 -1.</_>
        <_>
          7 4 4 20 2.</_></rects>
      <tilted>0</tilted></_>
    <_>
      <rects>
        <_>
          3 8 2 2 -1.</_>
        <_>
          3 8 1 1 2.</_>
        <_>
          4 9 1 1 2.</_></rects>
      <tilted>0</tilted></_>
    <_>
      <rects>
        <_>
          3 10 8 14 -1.</_>
        <_>
          7 10 4 14 2.</_></rects>
      <tilted>0</tilted></_>
    <_>
      <rects>
        <_>
          3 10 12 2 -1.</_>
        <_>
          3 11 12 1 2.</_></rects>
      <tilted>0</tilted></_>
    <_>
      <rects>
        <_>
          3 13 18 2 -1.</_>
        <_>
          3 14 18 1 2.</_></rects>
      <tilted>0</tilted></_>
    <_>
      <rects>
        <_>
          3 18 17 3 -1.</_>
        <_>
          3 19 17 1 2.</_></rects>
      <tilted>0</tilted></_>
    <_>
      <rects>
        <_>
          3 21 2 1 -1.</_>
        <_>
          4 21 1 1 2.</_></rects>
      <tilted>0</tilted></_>
    <_>
      <rects>
        <_>
          3 21 6 1 -1.</_>
        <_>
          5 21 2 1 2.</_></rects>
      <tilted>0</tilted></_>
    <_>
      <rects>
        <_>
          3 22 17 2 -1.</_>
        <_>
          3 23 17 1 2.</_></rects>
      <tilted>0</tilted></_>
    <_>
      <rects>
        <_>
          3 23 2 1 -1.</_>
        <_>
          4 23 1 1 2.</_></rects>
      <tilted>0</tilted></_>
    <_>
      <rects>
        <_>
          4 0 10 2 -1.</_>
        <_>
          4 0 5 1 2.</_>
        <_>
          9 1 5 1 2.</_></rects>
      <tilted>0</tilted></_>
    <_>
      <rects>
        <_>
          4 0 20 2 -1.</_>
        <_>
          4 0 10 1 2.</_>
        <_>
          14 1 10 1 2.</_></rects>
      <tilted>0</tilted></_>
    <_>
      <rects>
        <_>
          4 2 8 10 -1.</_>
        <_>
          4 7 8 5 2.</_></rects>
      <tilted>0</tilted></_>
    <_>
      <rects>
        <_>
          4 3 1 21 -1.</_>
        <_>
          4 10 1 7 2.</_></rects>
      <tilted>0</tilted></_>
    <_>
      <rects>
        <_>
          4 4 20 2 -1.</_>
        <_>
          4 5 20 1 2.</_></rects>
      <tilted>0</tilted></_>
    <_>
      <rects>
        <_>
          4 8 14 6 -1.</_>
        <_>
          4 11 14 3 2.</_></rects>
      <tilted>0</tilted></_>
    <_>
      <rects>
        <_>
          4 9 4 2 -1.</_>
        <_>
          4 9 2 1 2.</_>
        <_>
          6 10 2 1 2.</_></rects>
      <tilted>0</tilted></_>
    <_>
      <rects>
        <_>
          4 21 2 2 -1.</_>
        <_>
          4 21 1 1 2.</_>
        <_>
          5 22 1 1 2.</_></rects>
      <tilted>0</tilted></_>
    <_>
      <rects>
        <_>
          4 22 1 2 -1.</_>
        <_>
          4 23 1 1 2.</_></rects>
      <tilted>0</tilted></_>
    <_>
      <rects>
        <_>
          4 23 2 1 -1.</_>
        <_>
          5 23 1 1 2.</_></rects>
      <tilted>0</tilted></_>
    <_>
      <rects>
        <_>
          5 1 6 19 -1.</_>
        <_>
          7 1 2 19 2.</_></rects>
      <tilted>0</tilted></_>
    <_>
      <rects>
        <_>
          5 1 8 2 -1.</_>
        <_>
          5 1 4 1 2.</_>
        <_>
          9 2 4 1 2.</_></rects>
      <tilted>0</tilted></_>
    <_>
      <rects>
        <_>
          5 2 4 8 -1.</_>
        <_>
          5 6 4 4 2.</_></rects>
      <tilted>0</tilted></_>
    <_>
      <rects>
        <_>
          5 3 14 2 -1.</_>
        <_>
          5 4 14 1 2.</_></rects>
      <tilted>0</tilted></_>
    <_>
      <rects>
        <_>
          5 11 16 6 -1.</_>
        <_>
          5 14 16 3 2.</_></rects>
      <tilted>0</tilted></_>
    <_>
      <rects>
        <_>
          5 12 19 4 -1.</_>
        <_>
          5 14 19 2 2.</_></rects>
      <tilted>0</tilted></_>
    <_>
      <rects>
        <_>
          5 14 14 2 -1.</_>
        <_>
          5 14 7 1 2.</_>
        <_>
          12 15 7 1 2.</_></rects>
      <tilted>0</tilted></_>
    <_>
      <rects>
        <_>
          5 19 4 4 -1.</_>
        <_>
          5 21 4 2 2.</_></rects>
      <tilted>0</tilted></_>
    <_>
      <rects>
        <_>
          6 0 12 2 -1.</_>
        <_>
          6 0 6 1 2.</_>
        <_>
          12 1 6 1 2.</_></rects>
      <tilted>0</tilted></_>
    <_>
      <rects>
        <_>
          6 0 18 13 -1.</_>
        <_>
          12 0 6 13 2.</_></rects>
      <tilted>0</tilted></_>
    <_>
      <rects>
        <_>
          6 7 11 8 -1.</_>
        <_>
          6 11 11 4 2.</_></rects>
      <tilted>0</tilted></_>
    <_>
      <rects>
        <_>
          6 11 18 6 -1.</_>
        <_>
          6 14 18 3 2.</_></rects>
      <tilted>0</tilted></_>
    <_>
      <rects>
        <_>
          6 17 12 1 -1.</_>
        <_>
          10 17 4 1 2.</_></rects>
      <tilted>0</tilted></_>
    <_>
      <rects>
        <_>
          6 18 12 3 -1.</_>
        <_>
          10 18 4 3 2.</_></rects>
      <tilted>0</tilted></_>
    <_>
      <rects>
        <_>
          7 0 2 6 -1.</_>
        <_>
          8 0 1 6 2.</_></rects>
      <tilted>0</tilted></_>
    <_>
      <rects>
        <_>
          7 0 12 1 -1.</_>
        <_>
          13 0 6 1 2.</_></rects>
      <tilted>0</tilted></_>
    <_>
      <rects>
        <_>
          7 0 16 2 -1.</_>
        <_>
          7 1 16 1 2.</_></rects>
      <tilted>0</tilted></_>
    <_>
      <rects>
        <_>
          7 2 2 2 -1.</_>
        <_>
          7 2 1 1 2.</_>
        <_>
          8 3 1 1 2.</_></rects>
      <tilted>0</tilted></_>
    <_>
      <rects>
        <_>
          7 3 3 2 -1.</_>
        <_>
          8 3 1 2 2.</_></rects>
      <tilted>0</tilted></_>
    <_>
      <rects>
        <_>
          7 4 4 8 -1.</_>
        <_>
          7 4 2 4 2.</_>
        <_>
          9 8 2 4 2.</_></rects>
      <tilted>0</tilted></_>
    <_>
      <rects>
        <_>
          7 4 10 4 -1.</_>
        <_>
          12 4 5 4 2.</_></rects>
      <tilted>0</tilted></_>
    <_>
      <rects>
        <_>
          7 4 5 16 -1.</_>
        <_>
          7 12 5 8 2.</_></rects>
      <tilted>0</tilted></_>
    <_>
      <rects>
        <_>
          7 8 4 3 -1.</_>
        <_>
          9 8 2 3 2.</_></rects>
      <tilted>0</tilted></_>
    <_>
      <rects>
        <_>
          7 14 10 3 -1.</_>
        <_>
          7 15 10 1 2.</_></rects>
      <tilted>0</tilted></_>
    <_>
      <rects>
        <_>
          7 19 1 2 -1.</_>
        <_>
          7 20 1 1 2.</_></rects>
      <tilted>0</tilted></_>
    <_>
      <rects>
        <_>
          8 2 2 3 -1.</_>
        <_>
          9 2 1 3 2.</_></rects>
      <tilted>0</tilted></_>
    <_>
      <rects>
        <_>
          8 2 2 2 -1.</_>
        <_>
          8 3 2 1 2.</_></rects>
      <tilted>0</tilted></_>
    <_>
      <rects>
        <_>
          8 3 13 2 -1.</_>
        <_>
          8 4 13 1 2.</_></rects>
      <tilted>0</tilted></_>
    <_>
      <rects>
        <_>
          8 6 7 6 -1.</_>
        <_>
          8 8 7 2 2.</_></rects>
      <tilted>0</tilted></_>
    <_>
      <rects>
        <_>
          8 10 16 1 -1.</_>
        <_>
          16 10 8 1 2.</_></rects>
      <tilted>0</tilted></_>
    <_>
      <rects>
        <_>
          8 13 12 4 -1.</_>
        <_>
          14 13 6 4 2.</_></rects>
      <tilted>0</tilted></_>
    <_>
      <rects>
        <_>
          8 14 4 10 -1.</_>
        <_>
          8 14 2 5 2.</_>
        <_>
          10 19 2 5 2.</_></rects>
      <tilted>0</tilted></_>
    <_>
      <rects>
        <_>
          9 0 10 2 -1.</_>
        <_>
          9 1 10 1 2.</_></rects>
      <tilted>0</tilted></_>
    <_>
      <rects>
        <_>
          9 6 2 5 -1.</_>
        <_>
          10 6 1 5 2.</_></rects>
      <tilted>0</tilted></_>
    <_>
      <rects>
        <_>
          9 8 2 2 -1.</_>
        <_>
          9 8 1 1 2.</_>
        <_>
          10 9 1 1 2.</_></rects>
      <tilted>0</tilted></_>
    <_>
      <rects>
        <_>
          9 11 2 2 -1.</_>
        <_>
          9 11 1 1 2.</_>
        <_>
          10 12 1 1 2.</_></rects>
      <tilted>0</tilted></_>
    <_>
      <rects>
        <_>
          9 14 6 6 -1.</_>
        <_>
          11 14 2 6 2.</_></rects>
      <tilted>0</tilted></_>
    <_>
      <rects>
        <_>
          9 16 6 8 -1.</_>
        <_>
          12 16 3 8 2.</_></rects>
      <tilted>0</tilted></_>
    <_>
      <rects>
        <_>
          9 20 2 2 -1.</_>
        <_>
          9 20 1 1 2.</_>
        <_>
          10 21 1 1 2.</_></rects>
      <tilted>0</tilted></_>
    <_>
      <rects>
        <_>
          9 21 15 1 -1.</_>
        <_>
          14 21 5 1 2.</_></rects>
      <tilted>0</tilted></_>
    <_>
      <rects>
        <_>
          10 0 5 2 -1.</_>
        <_>
          10 1 5 1 2.</_></rects>
      <tilted>0</tilted></_>
    <_>
      <rects>
        <_>
          10 2 9 2 -1.</_>
        <_>
          10 3 9 1 2.</_></rects>
      <tilted>0</tilted></_>
    <_>
      <rects>
        <_>
          10 3 9 2 -1.</_>
        <_>
          10 4 9 1 2.</_></rects>
      <tilted>0</tilted></_>
    <_>
      <rects>
        <_>
          10 14 4 10 -1.</_>
        <_>
          12 14 2 10 2.</_></rects>
      <tilted>0</tilted></_>
    <_>
      <rects>
        <_>
          10 16 4 6 -1.</_>
        <_>
          12 16 2 6 2.</_></rects>
      <tilted>0</tilted></_>
    <_>
      <rects>
        <_>
          10 16 8 7 -1.</_>
        <_>
          14 16 4 7 2.</_></rects>
      <tilted>0</tilted></_>
    <_>
      <rects>
        <_>
          10 16 10 8 -1.</_>
        <_>
          10 20 10 4 2.</_></rects>
      <tilted>0</tilted></_>
    <_>
      <rects>
        <_>
          10 22 2 2 -1.</_>
        <_>
          10 22 1 1 2.</_>
        <_>
          11 23 1 1 2.</_></rects>
      <tilted>0</tilted></_>
    <_>
      <rects>
        <_>
          11 0 10 2 -1.</_>
        <_>
          11 1 10 1 2.</_></rects>
      <tilted>0</tilted></_>
    <_>
      <rects>
        <_>
          11 2 8 2 -1.</_>
        <_>
          11 3 8 1 2.</_></rects>
      <tilted>0</tilted></_>
    <_>
      <rects>
        <_>
          11 6 2 11 -1.</_>
        <_>
          12 6 1 11 2.</_></rects>
      <tilted>0</tilted></_>
    <_>
      <rects>
        <_>
          11 11 1 3 -1.</_>
        <_>
          11 12 1 1 2.</_></rects>
      <tilted>0</tilted></_>
    <_>
      <rects>
        <_>
          11 12 12 4 -1.</_>
        <_>
          15 12 4 4 2.</_></rects>
      <tilted>0</tilted></_>
    <_>
      <rects>
        <_>
          11 21 2 2 -1.</_>
        <_>
          11 21 1 1 2.</_>
        <_>
          12 22 1 1 2.</_></rects>
      <tilted>0</tilted></_>
    <_>
      <rects>
        <_>
          11 22 2 2 -1.</_>
        <_>
          11 23 2 1 2.</_></rects>
      <tilted>0</tilted></_>
    <_>
      <rects>
        <_>
          12 0 12 2 -1.</_>
        <_>
          16 0 4 2 2.</_></rects>
      <tilted>0</tilted></_>
    <_>
      <rects>
        <_>
          12 7 12 10 -1.</_>
        <_>
          12 7 6 5 2.</_>
        <_>
          18 12 6 5 2.</_></rects>
      <tilted>0</tilted></_>
    <_>
      <rects>
        <_>
          12 9 2 3 -1.</_>
        <_>
          13 9 1 3 2.</_></rects>
      <tilted>0</tilted></_>
    <_>
      <rects>
        <_>
          12 14 11 10 -1.</_>
        <_>
          12 19 11 5 2.</_></rects>
      <tilted>0</tilted></_>
    <_>
      <rects>
        <_>
          13 0 6 1 -1.</_>
        <_>
          15 0 2 1 2.</_></rects>
      <tilted>0</tilted></_>
    <_>
      <rects>
        <_>
          13 0 6 2 -1.</_>
        <_>
          13 1 6 1 2.</_></rects>
      <tilted>0</tilted></_>
    <_>
      <rects>
        <_>
          13 3 8 2 -1.</_>
        <_>
          13 3 4 1 2.</_>
        <_>
          17 4 4 1 2.</_></rects>
      <tilted>0</tilted></_>
    <_>
      <rects>
        <_>
          13 7 2 7 -1.</_>
        <_>
          14 7 1 7 2.</_></rects>
      <tilted>0</tilted></_>
    <_>
      <rects>
        <_>
          13 11 2 4 -1.</_>
        <_>
          14 11 1 4 2.</_></rects>
      <tilted>0</tilted></_>
    <_>
      <rects>
        <_>
          13 11 8 10 -1.</_>
        <_>
          13 11 4 5 2.</_>
        <_>
          17 16 4 5 2.</_></rects>
      <tilted>0</tilted></_>
    <_>
      <rects>
        <_>
          13 12 2 3 -1.</_>
        <_>
          13 13 2 1 2.</_></rects>
      <tilted>0</tilted></_>
    <_>
      <rects>
        <_>
          13 13 4 10 -1.</_>
        <_>
          13 13 2 5 2.</_>
        <_>
          15 18 2 5 2.</_></rects>
      <tilted>0</tilted></_>
    <_>
      <rects>
        <_>
          13 15 2 2 -1.</_>
        <_>
          13 15 1 1 2.</_>
        <_>
          14 16 1 1 2.</_></rects>
      <tilted>0</tilted></_>
    <_>
      <rects>
        <_>
          13 16 9 4 -1.</_>
        <_>
          13 18 9 2 2.</_></rects>
      <tilted>0</tilted></_>
    <_>
      <rects>
        <_>
          13 23 2 1 -1.</_>
        <_>
          14 23 1 1 2.</_></rects>
      <tilted>0</tilted></_>
    <_>
      <rects>
        <_>
          14 0 10 23 -1.</_>
        <_>
          19 0 5 23 2.</_></rects>
      <tilted>0</tilted></_>
    <_>
      <rects>
        <_>
          14 2 9 4 -1.</_>
        <_>
          17 2 3 4 2.</_></rects>
      <tilted>0</tilted></_>
    <_>
      <rects>
        <_>
          14 2 8 16 -1.</_>
        <_>
          18 2 4 16 2.</_></rects>
      <tilted>0</tilted></_>
    <_>
      <rects>
        <_>
          14 3 2 2 -1.</_>
        <_>
          14 3 1 1 2.</_>
        <_>
          15 4 1 1 2.</_></rects>
      <tilted>0</tilted></_>
    <_>
      <rects>
        <_>
          14 3 5 2 -1.</_>
        <_>
          14 4 5 1 2.</_></rects>
      <tilted>0</tilted></_>
    <_>
      <rects>
        <_>
          14 3 10 20 -1.</_>
        <_>
          19 3 5 20 2.</_></rects>
      <tilted>0</tilted></_>
    <_>
      <rects>
        <_>
          14 4 6 2 -1.</_>
        <_>
          14 4 3 1 2.</_>
        <_>
          17 5 3 1 2.</_></rects>
      <tilted>0</tilted></_>
    <_>
      <rects>
        <_>
          14 4 8 14 -1.</_>
        <_>
          18 4 4 14 2.</_></rects>
      <tilted>0</tilted></_>
    <_>
      <rects>
        <_>
          14 5 8 2 -1.</_>
        <_>
          14 5 4 1 2.</_>
        <_>
          18 6 4 1 2.</_></rects>
      <tilted>0</tilted></_>
    <_>
      <rects>
        <_>
          14 6 2 2 -1.</_>
        <_>
          14 7 2 1 2.</_></rects>
      <tilted>0</tilted></_>
    <_>
      <rects>
        <_>
          14 14 10 9 -1.</_>
        <_>
          19 14 5 9 2.</_></rects>
      <tilted>0</tilted></_>
    <_>
      <rects>
        <_>
          14 19 10 5 -1.</_>
        <_>
          19 19 5 5 2.</_></rects>
      <tilted>0</tilted></_>
    <_>
      <rects>
        <_>
          15 3 2 12 -1.</_>
        <_>
          15 3 1 6 2.</_>
        <_>
          16 9 1 6 2.</_></rects>
      <tilted>0</tilted></_>
    <_>
      <rects>
        <_>
          15 7 2 2 -1.</_>
        <_>
          15 7 1 1 2.</_>
        <_>
          16 8 1 1 2.</_></rects>
      <tilted>0</tilted></_>
    <_>
      <rects>
        <_>
          15 19 2 1 -1.</_>
        <_>
          16 19 1 1 2.</_></rects>
      <tilted>0</tilted></_>
    <_>
      <rects>
        <_>
          15 22 2 2 -1.</_>
        <_>
          15 23 2 1 2.</_></rects>
      <tilted>0</tilted></_>
    <_>
      <rects>
        <_>
          15 23 6 1 -1.</_>
        <_>
          18 23 3 1 2.</_></rects>
      <tilted>0</tilted></_>
    <_>
      <rects>
        <_>
          16 2 2 3 -1.</_>
        <_>
          16 3 2 1 2.</_></rects>
      <tilted>0</tilted></_>
    <_>
      <rects>
        <_>
          16 2 8 22 -1.</_>
        <_>
          20 2 4 22 2.</_></rects>
      <tilted>0</tilted></_>
    <_>
      <rects>
        <_>
          16 2 5 12 -1.</_>
        <_>
          16 8 5 6 2.</_></rects>
      <tilted>0</tilted></_>
    <_>
      <rects>
        <_>
          16 3 6 6 -1.</_>
        <_>
          16 6 6 3 2.</_></rects>
      <tilted>0</tilted></_>
    <_>
      <rects>
        <_>
          16 4 8 18 -1.</_>
        <_>
          16 4 4 9 2.</_>
        <_>
          20 13 4 9 2.</_></rects>
      <tilted>0</tilted></_>
    <_>
      <rects>
        <_>
          16 4 8 17 -1.</_>
        <_>
          20 4 4 17 2.</_></rects>
      <tilted>0</tilted></_>
    <_>
      <rects>
        <_>
          16 5 2 10 -1.</_>
        <_>
          16 5 1 5 2.</_>
        <_>
          17 10 1 5 2.</_></rects>
      <tilted>0</tilted></_>
    <_>
      <rects>
        <_>
          16 10 2 1 -1.</_>
        <_>
          17 10 1 1 2.</_></rects>
      <tilted>0</tilted></_>
    <_>
      <rects>
        <_>
          16 21 4 2 -1.</_>
        <_>
          16 21 2 1 2.</_>
        <_>
          18 22 2 1 2.</_></rects>
      <tilted>0</tilted></_>
    <_>
      <rects>
        <_>
          16 22 1 2 -1.</_>
        <_>
          16 23 1 1 2.</_></rects>
      <tilted>0</tilted></_>
    <_>
      <rects>
        <_>
          17 1 4 23 -1.</_>
        <_>
          19 1 2 23 2.</_></rects>
      <tilted>0</tilted></_>
    <_>
      <rects>
        <_>
          17 2 3 2 -1.</_>
        <_>
          18 2 1 2 2.</_></rects>
      <tilted>0</tilted></_>
    <_>
      <rects>
        <_>
          17 9 2 1 -1.</_>
        <_>
          18 9 1 1 2.</_></rects>
      <tilted>0</tilted></_>
    <_>
      <rects>
        <_>
          17 19 2 4 -1.</_>
        <_>
          17 19 1 2 2.</_>
        <_>
          18 21 1 2 2.</_></rects>
      <tilted>0</tilted></_>
    <_>
      <rects>
        <_>
          18 0 2 20 -1.</_>
        <_>
          19 0 1 20 2.</_></rects>
      <tilted>0</tilted></_>
    <_>
      <rects>
        <_>
          19 3 2 2 -1.</_>
        <_>
          19 4 2 1 2.</_></rects>
      <tilted>0</tilted></_>
    <_>
      <rects>
        <_>
          19 3 4 2 -1.</_>
        <_>
          19 3 2 1 2.</_>
        <_>
          21 4 2 1 2.</_></rects>
      <tilted>0</tilted></_>
    <_>
      <rects>
        <_>
          19 19 2 1 -1.</_>
        <_>
          20 19 1 1 2.</_></rects>
      <tilted>0</tilted></_>
    <_>
      <rects>
        <_>
          20 4 2 2 -1.</_>
        <_>
          20 4 1 1 2.</_>
        <_>
          21 5 1 1 2.</_></rects>
      <tilted>0</tilted></_>
    <_>
      <rects>
        <_>
          21 0 2 3 -1.</_>
        <_>
          21 1 2 1 2.</_></rects>
      <tilted>0</tilted></_>
    <_>
      <rects>
        <_>
          21 1 3 1 -1.</_>
        <_>
          22 1 1 1 2.</_></rects>
      <tilted>0</tilted></_>
    <_>
      <rects>
        <_>
          21 4 2 2 -1.</_>
        <_>
          21 4 1 1 2.</_>
        <_>
          22 5 1 1 2.</_></rects>
      <tilted>0</tilted></_>
    <_>
      <rects>
        <_>
          21 21 2 3 -1.</_>
        <_>
          21 22 2 1 2.</_></rects>
      <tilted>0</tilted></_>
    <_>
      <rects>
        <_>
          22 1 2 13 -1.</_>
        <_>
          23 1 1 13 2.</_></rects>
      <tilted>0</tilted></_>
    <_>
      <rects>
        <_>
          22 5 2 3 -1.</_>
        <_>
          22 6 2 1 2.</_></rects>
      <tilted>0</tilted></_>
    <_>
      <rects>
        <_>
          22 19 2 5 -1.</_>
        <_>
          23 19 1 5 2.</_></rects>
      <tilted>0</tilted></_>
    <_>
      <rects>
        <_>
          22 22 2 2 -1.</_>
        <_>
          22 22 1 1 2.</_>
        <_>
          23 23 1 1 2.</_></rects>
      <tilted>0</tilted></_>
    <_>
      <rects>
        <_>
          22 23 2 1 -1.</_>
        <_>
          23 23 1 1 2.</_></rects>
      <tilted>0</tilted></_></features></cascade>
</opencv_storage>
