<?xml version="1.0"?>
<opencv_storage>
<stage5>
  <maxWeakCount>5</maxWeakCount>
  <stageThreshold>-1.5251353979110718e+00</stageThreshold>
  <weakClassifiers>
    <_>
      <internalNodes>
        0 -1 148744 7.4206097051501274e-03</internalNodes>
      <leafValues>
        -7.9002624750137329e-01 2.0805369317531586e-01</leafValues></_>
    <_>
      <internalNodes>
        0 -1 151736 3.2917756470851600e-05</internalNodes>
      <leafValues>
        -5.0100177526473999e-01 4.3648606538772583e-01</leafValues></_>
    <_>
      <internalNodes>
        0 -1 48948 -8.0216504633426666e-02</internalNodes>
      <leafValues>
        -4.7665959596633911e-01 3.8677865266799927e-01</leafValues></_>
    <_>
      <internalNodes>
        0 -1 60264 -1.9674807845149189e-05</internalNodes>
      <leafValues>
        5.6347006559371948e-01 -3.7836447358131409e-01</leafValues></_>
    <_>
      <internalNodes>
        0 -1 150479 -1.1381538570276462e-05</internalNodes>
      <leafValues>
        5.4734593629837036e-01 -3.2091781497001648e-01</leafValues></_></weakClassifiers></stage5>
</opencv_storage>
