<?xml version="1.0"?>
<opencv_storage>
<cascade>
  <stageType>BOOST</stageType>
  <featureType>HAAR</featureType>
  <height>24</height>
  <width>24</width>
  <stageParams>
    <boostType>GAB</boostType>
    <minHitRate>9.9500000476837158e-01</minHitRate>
    <maxFalseAlarm>5.0000000000000000e-01</maxFalseAlarm>
    <weightTrimRate>9.4999999999999996e-01</weightTrimRate>
    <maxDepth>1</maxDepth>
    <maxWeakCount>100</maxWeakCount></stageParams>
  <featureParams>
    <maxCatCount>0</maxCatCount>
    <featSize>1</featSize>
    <mode>BASIC</mode></featureParams>
  <stageNum>24</stageNum>
  <stages>
    <!-- stage 0 -->
    <_>
      <maxWeakCount>5</maxWeakCount>
      <stageThreshold>-1.0251698493957520e+00</stageThreshold>
      <weakClassifiers>
        <_>
          <internalNodes>
            0 -1 190 -7.6213106513023376e-02</internalNodes>
          <leafValues>
            6.0655736923217773e-01 -6.7857140302658081e-01</leafValues></_>
        <_>
          <internalNodes>
            0 -1 210 3.0715616419911385e-02</internalNodes>
          <leafValues>
            -3.4118565917015076e-01 6.9750952720642090e-01</leafValues></_>
        <_>
          <internalNodes>
            0 -1 197 -2.5889350101351738e-02</internalNodes>
          <leafValues>
            -9.2369312047958374e-01 2.5758543610572815e-01</leafValues></_>
        <_>
          <internalNodes>
            0 -1 78 -5.6393723934888840e-02</internalNodes>
          <leafValues>
            1.8493749201297760e-01 -8.5143435001373291e-01</leafValues></_>
        <_>
          <internalNodes>
            0 -1 45 2.1230471320450306e-03</internalNodes>
          <leafValues>
            -3.0535227060317993e-01 6.3243365287780762e-01</leafValues></_></weakClassifiers></_>
    <!-- stage 1 -->
    <_>
      <maxWeakCount>9</maxWeakCount>
      <stageThreshold>-1.2469921112060547e+00</stageThreshold>
      <weakClassifiers>
        <_>
          <internalNodes>
            0 -1 8 9.2301383614540100e-02</internalNodes>
          <leafValues>
            -6.6265058517456055e-01 3.7313431501388550e-01</leafValues></_>
        <_>
          <internalNodes>
            0 -1 26 -1.1332491412758827e-03</internalNodes>
          <leafValues>
            3.0952614545822144e-01 -3.7105941772460938e-01</leafValues></_>
        <_>
          <internalNodes>
            0 -1 56 2.2099267691373825e-02</internalNodes>
          <leafValues>
            -3.1006923317909241e-01 4.4751569628715515e-01</leafValues></_>
        <_>
          <internalNodes>
            0 -1 232 2.9347493546083570e-04</internalNodes>
          <leafValues>
            1.5842124819755554e-01 -7.6914042234420776e-01</leafValues></_>
        <_>
          <internalNodes>
            0 -1 220 -2.3555997759103775e-02</internalNodes>
          <leafValues>
            -1. 1.2791521847248077e-01</leafValues></_>
        <_>
          <internalNodes>
            0 -1 222 -1.3120470102876425e-03</internalNodes>
          <leafValues>
            -7.6728200912475586e-01 1.4106741547584534e-01</leafValues></_>
        <_>
          <internalNodes>
            0 -1 151 7.4271496850997210e-04</internalNodes>
          <leafValues>
            -2.9942357540130615e-01 4.9412727355957031e-01</leafValues></_>
        <_>
          <internalNodes>
            0 -1 127 -9.3635544180870056e-04</internalNodes>
          <leafValues>
            4.0914422273635864e-01 -3.0801799893379211e-01</leafValues></_>
        <_>
          <internalNodes>
            0 -1 95 1.4153720438480377e-01</internalNodes>
          <leafValues>
            -1.9336128234863281e-01 6.4619022607803345e-01</leafValues></_></weakClassifiers></_>
    <!-- stage 2 -->
    <_>
      <maxWeakCount>10</maxWeakCount>
      <stageThreshold>-1.1659352779388428e+00</stageThreshold>
      <weakClassifiers>
        <_>
          <internalNodes>
            0 -1 166 -1.1800692975521088e-01</internalNodes>
          <leafValues>
            3.8028168678283691e-01 -6.7206478118896484e-01</leafValues></_>
        <_>
          <internalNodes>
            0 -1 35 -4.1312613757327199e-04</internalNodes>
          <leafValues>
            -8.5200077295303345e-01 5.3779836744070053e-03</leafValues></_>
        <_>
          <internalNodes>
            0 -1 35 5.4337608162313700e-04</internalNodes>
          <leafValues>
            1.0625024139881134e-01 -6.7535012960433960e-01</leafValues></_>
        <_>
          <internalNodes>
            0 -1 153 -2.0772197749465704e-03</internalNodes>
          <leafValues>
            3.6869442462921143e-01 -2.7353388071060181e-01</leafValues></_>
        <_>
          <internalNodes>
            0 -1 147 -2.9367319075390697e-04</internalNodes>
          <leafValues>
            3.2067817449569702e-01 -3.4257301688194275e-01</leafValues></_>
        <_>
          <internalNodes>
            0 -1 246 4.0888495277613401e-04</internalNodes>
          <leafValues>
            1.6415528953075409e-01 -6.8347460031509399e-01</leafValues></_>
        <_>
          <internalNodes>
            0 -1 129 1.1791688157245517e-03</internalNodes>
          <leafValues>
            -3.5358309745788574e-01 3.2082271575927734e-01</leafValues></_>
        <_>
          <internalNodes>
            0 -1 209 3.9668055251240730e-03</internalNodes>
          <leafValues>
            -2.0192265510559082e-01 4.7349861264228821e-01</leafValues></_>
        <_>
          <internalNodes>
            0 -1 134 -5.8751070173457265e-04</internalNodes>
          <leafValues>
            3.7210282683372498e-01 -2.6315936446189880e-01</leafValues></_>
        <_>
          <internalNodes>
            0 -1 225 -9.9146971479058266e-04</internalNodes>
          <leafValues>
            -6.8630146980285645e-01 1.8382431566715240e-01</leafValues></_></weakClassifiers></_>
    <!-- stage 3 -->
    <_>
      <maxWeakCount>10</maxWeakCount>
      <stageThreshold>-1.2180989980697632e+00</stageThreshold>
      <weakClassifiers>
        <_>
          <internalNodes>
            0 -1 230 -2.3342068307101727e-03</internalNodes>
          <leafValues>
            -6.3327032327651978e-01 8.3333331346511841e-01</leafValues></_>
        <_>
          <internalNodes>
            0 -1 226 -2.4447133182547987e-04</internalNodes>
          <leafValues>
            -8.0713617801666260e-01 2.8055554255843163e-02</leafValues></_>
        <_>
          <internalNodes>
            0 -1 55 3.9735082536935806e-03</internalNodes>
          <leafValues>
            -2.6635086536407471e-01 4.0925729274749756e-01</leafValues></_>
        <_>
          <internalNodes>
            0 -1 239 6.5677973907440901e-04</internalNodes>
          <leafValues>
            2.5094607472419739e-01 -5.7208603620529175e-01</leafValues></_>
        <_>
          <internalNodes>
            0 -1 73 1.7011284362524748e-03</internalNodes>
          <leafValues>
            -1.5764378011226654e-01 8.3073943853378296e-01</leafValues></_>
        <_>
          <internalNodes>
            0 -1 62 -1.2807701714336872e-03</internalNodes>
          <leafValues>
            4.1838619112968445e-01 -2.5530377030372620e-01</leafValues></_>
        <_>
          <internalNodes>
            0 -1 221 1.8121697008609772e-02</internalNodes>
          <leafValues>
            -1.7150476574897766e-01 5.9095615148544312e-01</leafValues></_>
        <_>
          <internalNodes>
            0 -1 244 4.1148095624521375e-04</internalNodes>
          <leafValues>
            1.9681121408939362e-01 -5.8177435398101807e-01</leafValues></_>
        <_>
          <internalNodes>
            0 -1 123 -6.9468100555241108e-03</internalNodes>
          <leafValues>
            6.3443118333816528e-01 -1.8031221628189087e-01</leafValues></_>
        <_>
          <internalNodes>
            0 -1 16 -8.5052457870915532e-04</internalNodes>
          <leafValues>
            -8.4142321348190308e-01 1.3402250409126282e-01</leafValues></_></weakClassifiers></_>
    <!-- stage 4 -->
    <_>
      <maxWeakCount>7</maxWeakCount>
      <stageThreshold>-1.3222806453704834e+00</stageThreshold>
      <weakClassifiers>
        <_>
          <internalNodes>
            0 -1 33 -1.0226547019556165e-03</internalNodes>
          <leafValues>
            -6.5183752775192261e-01 6.6666668653488159e-01</leafValues></_>
        <_>
          <internalNodes>
            0 -1 69 8.6348806507885456e-04</internalNodes>
          <leafValues>
            -4.4430717825889587e-01 3.1031441688537598e-01</leafValues></_>
        <_>
          <internalNodes>
            0 -1 74 -1.7965270671993494e-03</internalNodes>
          <leafValues>
            7.7125793695449829e-01 -1.2383339554071426e-01</leafValues></_>
        <_>
          <internalNodes>
            0 -1 40 3.4995496273040771e-01</internalNodes>
          <leafValues>
            1.4463935792446136e-01 -9.1888105869293213e-01</leafValues></_>
        <_>
          <internalNodes>
            0 -1 233 -1.8949199467897415e-02</internalNodes>
          <leafValues>
            -4.4147580862045288e-01 2.9354104399681091e-01</leafValues></_>
        <_>
          <internalNodes>
            0 -1 238 -1.0913177393376827e-03</internalNodes>
          <leafValues>
            -1.7756213247776031e-01 7.6389384269714355e-01</leafValues></_>
        <_>
          <internalNodes>
            0 -1 82 1.3302377192303538e-04</internalNodes>
          <leafValues>
            -3.6292082071304321e-01 3.1644690036773682e-01</leafValues></_></weakClassifiers></_>
    <!-- stage 5 -->
    <_>
      <maxWeakCount>7</maxWeakCount>
      <stageThreshold>-1.2969508171081543e+00</stageThreshold>
      <weakClassifiers>
        <_>
          <internalNodes>
            0 -1 1 -2.7160417288541794e-02</internalNodes>
          <leafValues>
            -7.0974153280258179e-01 8.3870965242385864e-01</leafValues></_>
        <_>
          <internalNodes>
            0 -1 68 -2.1569678187370300e-01</internalNodes>
          <leafValues>
            -4.8230409622192383e-01 4.0642294287681580e-01</leafValues></_>
        <_>
          <internalNodes>
            0 -1 142 2.3169144988059998e-02</internalNodes>
          <leafValues>
            -2.7435800433158875e-01 5.7691907882690430e-01</leafValues></_>
        <_>
          <internalNodes>
            0 -1 12 -5.9804233023896813e-04</internalNodes>
          <leafValues>
            -5.5866152048110962e-01 2.4850654602050781e-01</leafValues></_>
        <_>
          <internalNodes>
            0 -1 146 -3.9460901170969009e-03</internalNodes>
          <leafValues>
            -7.8204643726348877e-01 1.3810057938098907e-01</leafValues></_>
        <_>
          <internalNodes>
            0 -1 90 -3.1576193869113922e-02</internalNodes>
          <leafValues>
            -5.8332717418670654e-01 1.8867300450801849e-01</leafValues></_>
        <_>
          <internalNodes>
            0 -1 219 7.8123266575857997e-04</internalNodes>
          <leafValues>
            -3.4833496809005737e-01 3.6617290973663330e-01</leafValues></_></weakClassifiers></_>
    <!-- stage 6 -->
    <_>
      <maxWeakCount>7</maxWeakCount>
      <stageThreshold>-1.1259429454803467e+00</stageThreshold>
      <weakClassifiers>
        <_>
          <internalNodes>
            0 -1 17 -5.7310126721858978e-02</internalNodes>
          <leafValues>
            -7.1774190664291382e-01 7.3913043737411499e-01</leafValues></_>
        <_>
          <internalNodes>
            0 -1 41 -4.9034435302019119e-02</internalNodes>
          <leafValues>
            -4.0047153830528259e-01 3.6258310079574585e-01</leafValues></_>
        <_>
          <internalNodes>
            0 -1 186 3.9155231206677854e-05</internalNodes>
          <leafValues>
            -3.8627102971076965e-01 3.7908017635345459e-01</leafValues></_>
        <_>
          <internalNodes>
            0 -1 154 8.1109959864988923e-04</internalNodes>
          <leafValues>
            -1.7174206674098969e-01 7.7069842815399170e-01</leafValues></_>
        <_>
          <internalNodes>
            0 -1 65 -1.6325033357134089e-05</internalNodes>
          <leafValues>
            3.5388177633285522e-01 -3.8956317305564880e-01</leafValues></_>
        <_>
          <internalNodes>
            0 -1 167 -1.4315519365482032e-05</internalNodes>
          <leafValues>
            3.4187704324722290e-01 -3.4429213404655457e-01</leafValues></_>
        <_>
          <internalNodes>
            0 -1 128 -5.4026614874601364e-02</internalNodes>
          <leafValues>
            -1.4547520875930786e-01 7.2803151607513428e-01</leafValues></_></weakClassifiers></_>
    <!-- stage 7 -->
    <_>
      <maxWeakCount>9</maxWeakCount>
      <stageThreshold>-1.3612377643585205e+00</stageThreshold>
      <weakClassifiers>
        <_>
          <internalNodes>
            0 -1 36 -1.5526635572314262e-02</internalNodes>
          <leafValues>
            -7.1031743288040161e-01 8.6885243654251099e-01</leafValues></_>
        <_>
          <internalNodes>
            0 -1 61 -2.7800613641738892e-01</internalNodes>
          <leafValues>
            -2.9769161343574524e-01 7.0995849370956421e-01</leafValues></_>
        <_>
          <internalNodes>
            0 -1 104 -9.1089874505996704e-02</internalNodes>
          <leafValues>
            4.0102636814117432e-01 -4.1174972057342529e-01</leafValues></_>
        <_>
          <internalNodes>
            0 -1 234 -5.8652460575103760e-04</internalNodes>
          <leafValues>
            -6.3787204027175903e-01 2.4857866764068604e-01</leafValues></_>
        <_>
          <internalNodes>
            0 -1 57 8.3029359579086304e-02</internalNodes>
          <leafValues>
            -2.0666019618511200e-01 6.6157037019729614e-01</leafValues></_>
        <_>
          <internalNodes>
            0 -1 138 -8.4423727821558714e-04</internalNodes>
          <leafValues>
            6.7492932081222534e-01 -2.1085040271282196e-01</leafValues></_>
        <_>
          <internalNodes>
            0 -1 19 -5.2063644398003817e-04</internalNodes>
          <leafValues>
            -5.2156817913055420e-01 2.6719978451728821e-01</leafValues></_>
        <_>
          <internalNodes>
            0 -1 150 1.1132112558698282e-04</internalNodes>
          <leafValues>
            -2.8100860118865967e-01 4.1425064206123352e-01</leafValues></_>
        <_>
          <internalNodes>
            0 -1 11 9.7338552586734295e-04</internalNodes>
          <leafValues>
            2.4126173555850983e-01 -4.9880468845367432e-01</leafValues></_></weakClassifiers></_>
    <!-- stage 8 -->
    <_>
      <maxWeakCount>10</maxWeakCount>
      <stageThreshold>-1.6500991582870483e+00</stageThreshold>
      <weakClassifiers>
        <_>
          <internalNodes>
            0 -1 241 -2.1579673048108816e-03</internalNodes>
          <leafValues>
            -6.8774706125259399e-01 7.2881358861923218e-01</leafValues></_>
        <_>
          <internalNodes>
            0 -1 101 5.0038590416079387e-05</internalNodes>
          <leafValues>
            -4.2111447453498840e-01 3.0229255557060242e-01</leafValues></_>
        <_>
          <internalNodes>
            0 -1 113 4.5133795356377959e-04</internalNodes>
          <leafValues>
            -2.4969404935836792e-01 5.0254881381988525e-01</leafValues></_>
        <_>
          <internalNodes>
            0 -1 247 -1.7352671420667320e-04</internalNodes>
          <leafValues>
            -5.5485588312149048e-01 2.1576201915740967e-01</leafValues></_>
        <_>
          <internalNodes>
            0 -1 196 1.4232324610929936e-04</internalNodes>
          <leafValues>
            -2.0027886331081390e-01 4.7074732184410095e-01</leafValues></_>
        <_>
          <internalNodes>
            0 -1 184 9.3379640020430088e-05</internalNodes>
          <leafValues>
            -2.9072511196136475e-01 3.8227516412734985e-01</leafValues></_>
        <_>
          <internalNodes>
            0 -1 182 -4.4259947026148438e-04</internalNodes>
          <leafValues>
            5.8442974090576172e-01 -1.7473210394382477e-01</leafValues></_>
        <_>
          <internalNodes>
            0 -1 208 -3.9225997170433402e-04</internalNodes>
          <leafValues>
            -6.3947188854217529e-01 1.9186557829380035e-01</leafValues></_>
        <_>
          <internalNodes>
            0 -1 63 1.2889559729956090e-04</internalNodes>
          <leafValues>
            -2.7847188711166382e-01 4.2160433530807495e-01</leafValues></_>
        <_>
          <internalNodes>
            0 -1 200 7.5502600520849228e-04</internalNodes>
          <leafValues>
            2.4503673613071442e-01 -5.2925717830657959e-01</leafValues></_></weakClassifiers></_>
    <!-- stage 9 -->
    <_>
      <maxWeakCount>8</maxWeakCount>
      <stageThreshold>-9.1321498155593872e-01</stageThreshold>
      <weakClassifiers>
        <_>
          <internalNodes>
            0 -1 80 -3.4182183444499969e-02</internalNodes>
          <leafValues>
            1.0416666418313980e-01 -6.7164176702499390e-01</leafValues></_>
        <_>
          <internalNodes>
            0 -1 58 -1.7618718743324280e-01</internalNodes>
          <leafValues>
            6.2429952621459961e-01 -2.9006451368331909e-01</leafValues></_>
        <_>
          <internalNodes>
            0 -1 3 6.9377765059471130e-02</internalNodes>
          <leafValues>
            -2.6494815945625305e-01 4.8168614506721497e-01</leafValues></_>
        <_>
          <internalNodes>
            0 -1 133 -5.6608598679304123e-02</internalNodes>
          <leafValues>
            7.2090685367584229e-01 -1.4809039235115051e-01</leafValues></_>
        <_>
          <internalNodes>
            0 -1 245 2.1045175381004810e-03</internalNodes>
          <leafValues>
            2.1101291477680206e-01 -5.4108613729476929e-01</leafValues></_>
        <_>
          <internalNodes>
            0 -1 28 -7.5435801409184933e-04</internalNodes>
          <leafValues>
            -6.1374205350875854e-01 1.8309457600116730e-01</leafValues></_>
        <_>
          <internalNodes>
            0 -1 215 -1.5366571024060249e-02</internalNodes>
          <leafValues>
            4.6667227149009705e-01 -2.2493597865104675e-01</leafValues></_>
        <_>
          <internalNodes>
            0 -1 118 -4.6468743676086888e-05</internalNodes>
          <leafValues>
            2.9782307147979736e-01 -3.2543706893920898e-01</leafValues></_></weakClassifiers></_>
    <!-- stage 10 -->
    <_>
      <maxWeakCount>7</maxWeakCount>
      <stageThreshold>-1.2263250350952148e+00</stageThreshold>
      <weakClassifiers>
        <_>
          <internalNodes>
            0 -1 237 -2.1973267197608948e-02</internalNodes>
          <leafValues>
            7.7777779102325439e-01 -6.0594797134399414e-01</leafValues></_>
        <_>
          <internalNodes>
            0 -1 29 5.4526905296370387e-04</internalNodes>
          <leafValues>
            1.0026877373456955e-01 -7.5938242673873901e-01</leafValues></_>
        <_>
          <internalNodes>
            0 -1 121 -1.6101613640785217e-02</internalNodes>
          <leafValues>
            1.2244024872779846e-01 -1.</leafValues></_>
        <_>
          <internalNodes>
            0 -1 48 -4.8685859655961394e-04</internalNodes>
          <leafValues>
            -7.5073689222335815e-01 1.8372628092765808e-01</leafValues></_>
        <_>
          <internalNodes>
            0 -1 228 2.4891353677958250e-04</internalNodes>
          <leafValues>
            1.1241036653518677e-01 -7.0420527458190918e-01</leafValues></_>
        <_>
          <internalNodes>
            0 -1 109 -1.7652803217060864e-04</internalNodes>
          <leafValues>
            -5.8021926879882813e-01 1.8523135781288147e-01</leafValues></_>
        <_>
          <internalNodes>
            0 -1 71 1.1100798845291138e-02</internalNodes>
          <leafValues>
            -2.9881978034973145e-01 3.7545976042747498e-01</leafValues></_></weakClassifiers></_>
    <!-- stage 11 -->
    <_>
      <maxWeakCount>10</maxWeakCount>
      <stageThreshold>-1.1275725364685059e+00</stageThreshold>
      <weakClassifiers>
        <_>
          <internalNodes>
            0 -1 33 -3.2441411167383194e-04</internalNodes>
          <leafValues>
            -5.9340661764144897e-01 1.</leafValues></_>
        <_>
          <internalNodes>
            0 -1 7 -1.0374116152524948e-01</internalNodes>
          <leafValues>
            4.5091715455055237e-01 -3.0220612883567810e-01</leafValues></_>
        <_>
          <internalNodes>
            0 -1 97 -6.6281013190746307e-02</internalNodes>
          <leafValues>
            1.2585465610027313e-01 -9.2008012533187866e-01</leafValues></_>
        <_>
          <internalNodes>
            0 -1 32 6.8946345709264278e-04</internalNodes>
          <leafValues>
            1.6361397504806519e-01 -6.5106338262557983e-01</leafValues></_>
        <_>
          <internalNodes>
            0 -1 185 2.3429766297340393e-02</internalNodes>
          <leafValues>
            8.5861869156360626e-02 -8.9592677354812622e-01</leafValues></_>
        <_>
          <internalNodes>
            0 -1 98 -1.1917552910745144e-02</internalNodes>
          <leafValues>
            -6.8409526348114014e-01 1.0657564550638199e-01</leafValues></_>
        <_>
          <internalNodes>
            0 -1 81 -1.1701574549078941e-03</internalNodes>
          <leafValues>
            -7.7644860744476318e-01 5.6432332843542099e-02</leafValues></_>
        <_>
          <internalNodes>
            0 -1 105 -1.6443477943539619e-03</internalNodes>
          <leafValues>
            7.5265318155288696e-01 -1.0508806258440018e-01</leafValues></_>
        <_>
          <internalNodes>
            0 -1 64 -1.7222251743078232e-02</internalNodes>
          <leafValues>
            3.1136965751647949e-01 -2.5210630893707275e-01</leafValues></_>
        <_>
          <internalNodes>
            0 -1 179 -1.0118443518877029e-02</internalNodes>
          <leafValues>
            6.1939382553100586e-01 -1.4369893074035645e-01</leafValues></_></weakClassifiers></_>
    <!-- stage 12 -->
    <_>
      <maxWeakCount>11</maxWeakCount>
      <stageThreshold>-1.1855096817016602e+00</stageThreshold>
      <weakClassifiers>
        <_>
          <internalNodes>
            0 -1 111 1.6616939101368189e-03</internalNodes>
          <leafValues>
            -5.9925788640975952e-01 6.9230771064758301e-01</leafValues></_>
        <_>
          <internalNodes>
            0 -1 136 3.4336812677793205e-04</internalNodes>
          <leafValues>
            -3.0937835574150085e-01 3.4349068999290466e-01</leafValues></_>
        <_>
          <internalNodes>
            0 -1 73 1.6254611546173692e-03</internalNodes>
          <leafValues>
            -9.3362055718898773e-02 8.7228226661682129e-01</leafValues></_>
        <_>
          <internalNodes>
            0 -1 180 -4.9259117804467678e-04</internalNodes>
          <leafValues>
            5.0557857751846313e-01 -1.3558468222618103e-01</leafValues></_>
        <_>
          <internalNodes>
            0 -1 15 -6.9116249680519104e-02</internalNodes>
          <leafValues>
            -9.2141461372375488e-01 1.0035918653011322e-01</leafValues></_>
        <_>
          <internalNodes>
            0 -1 137 5.9103558305650949e-04</internalNodes>
          <leafValues>
            -1.5564884245395660e-01 5.6606942415237427e-01</leafValues></_>
        <_>
          <internalNodes>
            0 -1 0 -1.8456991529092193e-04</internalNodes>
          <leafValues>
            -5.9567308425903320e-01 1.5482994914054871e-01</leafValues></_>
        <_>
          <internalNodes>
            0 -1 47 -1.4592133811675012e-04</internalNodes>
          <leafValues>
            -5.5756628513336182e-01 1.6385503113269806e-01</leafValues></_>
        <_>
          <internalNodes>
            0 -1 193 -2.8430338948965073e-02</internalNodes>
          <leafValues>
            3.7878906726837158e-01 -2.5276234745979309e-01</leafValues></_>
        <_>
          <internalNodes>
            0 -1 140 4.6113308519124985e-02</internalNodes>
          <leafValues>
            1.2830218672752380e-01 -8.4211516380310059e-01</leafValues></_>
        <_>
          <internalNodes>
            0 -1 92 -5.5273005273193121e-04</internalNodes>
          <leafValues>
            4.9189499020576477e-01 -1.8686181306838989e-01</leafValues></_></weakClassifiers></_>
    <!-- stage 13 -->
    <_>
      <maxWeakCount>16</maxWeakCount>
      <stageThreshold>-9.7019124031066895e-01</stageThreshold>
      <weakClassifiers>
        <_>
          <internalNodes>
            0 -1 160 -2.7830586768686771e-03</internalNodes>
          <leafValues>
            -5.7531762123107910e-01 8.5714286565780640e-01</leafValues></_>
        <_>
          <internalNodes>
            0 -1 164 1.2837346876040101e-03</internalNodes>
          <leafValues>
            -2.4995677173137665e-01 4.1354507207870483e-01</leafValues></_>
        <_>
          <internalNodes>
            0 -1 148 -3.0685450881719589e-02</internalNodes>
          <leafValues>
            9.6622690558433533e-02 -8.7603968381881714e-01</leafValues></_>
        <_>
          <internalNodes>
            0 -1 229 -1.3859729282557964e-02</internalNodes>
          <leafValues>
            -1.6592676937580109e-01 4.6611970663070679e-01</leafValues></_>
        <_>
          <internalNodes>
            0 -1 212 1.8836669623851776e-02</internalNodes>
          <leafValues>
            -2.5833138823509216e-01 5.1239836215972900e-01</leafValues></_>
        <_>
          <internalNodes>
            0 -1 198 -3.0435272492468357e-03</internalNodes>
          <leafValues>
            3.5690137743949890e-01 -2.2822645306587219e-01</leafValues></_>
        <_>
          <internalNodes>
            0 -1 144 1.0108225792646408e-01</internalNodes>
          <leafValues>
            -1.5998002886772156e-01 5.4007464647293091e-01</leafValues></_>
        <_>
          <internalNodes>
            0 -1 172 -3.6584964254871011e-04</internalNodes>
          <leafValues>
            2.9364228248596191e-01 -2.9865598678588867e-01</leafValues></_>
        <_>
          <internalNodes>
            0 -1 42 2.9391408897936344e-03</internalNodes>
          <leafValues>
            -1.8524149060249329e-01 4.1200622916221619e-01</leafValues></_>
        <_>
          <internalNodes>
            0 -1 130 5.4850184824317694e-05</internalNodes>
          <leafValues>
            -2.9773452877998352e-01 3.2191079854965210e-01</leafValues></_>
        <_>
          <internalNodes>
            0 -1 231 5.0594913773238659e-04</internalNodes>
          <leafValues>
            1.2231085449457169e-01 -7.2031003236770630e-01</leafValues></_>
        <_>
          <internalNodes>
            0 -1 89 -3.9549049688503146e-04</internalNodes>
          <leafValues>
            3.0001682043075562e-01 -2.7082958817481995e-01</leafValues></_>
        <_>
          <internalNodes>
            0 -1 125 -4.8116277903318405e-03</internalNodes>
          <leafValues>
            3.0218952894210815e-01 -2.7018719911575317e-01</leafValues></_>
        <_>
          <internalNodes>
            0 -1 106 -9.8827689886093140e-02</internalNodes>
          <leafValues>
            -9.6559202671051025e-01 8.4863804280757904e-02</leafValues></_>
        <_>
          <internalNodes>
            0 -1 178 2.2751502692699432e-02</internalNodes>
          <leafValues>
            7.6801814138889313e-02 -7.9178500175476074e-01</leafValues></_>
        <_>
          <internalNodes>
            0 -1 5 -1.6792124509811401e-01</internalNodes>
          <leafValues>
            7.0929706096649170e-01 -1.3867503404617310e-01</leafValues></_></weakClassifiers></_>
    <!-- stage 14 -->
    <_>
      <maxWeakCount>9</maxWeakCount>
      <stageThreshold>-1.1928224563598633e+00</stageThreshold>
      <weakClassifiers>
        <_>
          <internalNodes>
            0 -1 24 -1.9787256605923176e-03</internalNodes>
          <leafValues>
            -6.2835246324539185e-01 5.3488373756408691e-01</leafValues></_>
        <_>
          <internalNodes>
            0 -1 60 4.7962300479412079e-02</internalNodes>
          <leafValues>
            4.4038217514753342e-02 -8.1287664175033569e-01</leafValues></_>
        <_>
          <internalNodes>
            0 -1 49 1.3527046889066696e-02</internalNodes>
          <leafValues>
            -2.7157011628150940e-01 3.4404993057250977e-01</leafValues></_>
        <_>
          <internalNodes>
            0 -1 205 7.5456622289493680e-04</internalNodes>
          <leafValues>
            -2.0041464269161224e-01 4.3710967898368835e-01</leafValues></_>
        <_>
          <internalNodes>
            0 -1 158 3.6430041654966772e-04</internalNodes>
          <leafValues>
            1.7991720139980316e-01 -5.4589700698852539e-01</leafValues></_>
        <_>
          <internalNodes>
            0 -1 108 3.3421973057556897e-05</internalNodes>
          <leafValues>
            -2.9218158125877380e-01 3.0294933915138245e-01</leafValues></_>
        <_>
          <internalNodes>
            0 -1 195 2.8069792315363884e-03</internalNodes>
          <leafValues>
            -1.8342418968677521e-01 4.5541957020759583e-01</leafValues></_>
        <_>
          <internalNodes>
            0 -1 103 9.1175243142060935e-05</internalNodes>
          <leafValues>
            -2.8482058644294739e-01 3.1001102924346924e-01</leafValues></_>
        <_>
          <internalNodes>
            0 -1 240 -1.0764235630631447e-03</internalNodes>
          <leafValues>
            -1.5084590017795563e-01 6.0882520675659180e-01</leafValues></_></weakClassifiers></_>
    <!-- stage 15 -->
    <_>
      <maxWeakCount>8</maxWeakCount>
      <stageThreshold>-1.3268464803695679e+00</stageThreshold>
      <weakClassifiers>
        <_>
          <internalNodes>
            0 -1 4 1.4327870681881905e-02</internalNodes>
          <leafValues>
            -6.7337805032730103e-01 -3.3898305147886276e-02</leafValues></_>
        <_>
          <internalNodes>
            0 -1 194 1.4370522694662213e-04</internalNodes>
          <leafValues>
            -3.6079856753349304e-01 3.2725530862808228e-01</leafValues></_>
        <_>
          <internalNodes>
            0 -1 51 7.5667444616556168e-04</internalNodes>
          <leafValues>
            -1.6832309961318970e-01 6.2125325202941895e-01</leafValues></_>
        <_>
          <internalNodes>
            0 -1 99 3.8729299558326602e-04</internalNodes>
          <leafValues>
            -1.6815216839313507e-01 5.1400333642959595e-01</leafValues></_>
        <_>
          <internalNodes>
            0 -1 10 8.4738322766497731e-04</internalNodes>
          <leafValues>
            -3.4550166130065918e-01 3.6467310786247253e-01</leafValues></_>
        <_>
          <internalNodes>
            0 -1 22 2.7309059078106657e-05</internalNodes>
          <leafValues>
            -2.9695925116539001e-01 3.4780800342559814e-01</leafValues></_>
        <_>
          <internalNodes>
            0 -1 223 -5.2870060317218304e-03</internalNodes>
          <leafValues>
            5.1607817411422729e-01 -1.8946865200996399e-01</leafValues></_>
        <_>
          <internalNodes>
            0 -1 176 2.5797430425882339e-03</internalNodes>
          <leafValues>
            1.9357946515083313e-01 -7.1506088972091675e-01</leafValues></_></weakClassifiers></_>
    <!-- stage 16 -->
    <_>
      <maxWeakCount>13</maxWeakCount>
      <stageThreshold>-1.4425157308578491e+00</stageThreshold>
      <weakClassifiers>
        <_>
          <internalNodes>
            0 -1 20 -2.6880400255322456e-03</internalNodes>
          <leafValues>
            -6.2285715341567993e-01 5.5000001192092896e-01</leafValues></_>
        <_>
          <internalNodes>
            0 -1 77 -1.5757798682898283e-03</internalNodes>
          <leafValues>
            5.0598943233489990e-01 -2.4360300600528717e-01</leafValues></_>
        <_>
          <internalNodes>
            0 -1 91 4.5424484414979815e-04</internalNodes>
          <leafValues>
            -1.8634688854217529e-01 4.8987227678298950e-01</leafValues></_>
        <_>
          <internalNodes>
            0 -1 207 -1.3491610297933221e-03</internalNodes>
          <leafValues>
            -1.2198941409587860e-01 7.1726286411285400e-01</leafValues></_>
        <_>
          <internalNodes>
            0 -1 162 1.4375345199368894e-04</internalNodes>
          <leafValues>
            -2.1431779861450195e-01 4.3147891759872437e-01</leafValues></_>
        <_>
          <internalNodes>
            0 -1 23 -4.4951913878321648e-03</internalNodes>
          <leafValues>
            6.1591440439224243e-01 -1.1724662780761719e-01</leafValues></_>
        <_>
          <internalNodes>
            0 -1 37 2.4575558491051197e-03</internalNodes>
          <leafValues>
            2.8025963902473450e-01 -3.1071934103965759e-01</leafValues></_>
        <_>
          <internalNodes>
            0 -1 139 1.2229522690176964e-03</internalNodes>
          <leafValues>
            -1.9834719598293304e-01 4.4371157884597778e-01</leafValues></_>
        <_>
          <internalNodes>
            0 -1 54 -1.5220633707940578e-02</internalNodes>
          <leafValues>
            -2.1209225058555603e-01 4.9999192357063293e-01</leafValues></_>
        <_>
          <internalNodes>
            0 -1 9 -3.7253099435474724e-05</internalNodes>
          <leafValues>
            2.9440516233444214e-01 -2.9407548904418945e-01</leafValues></_>
        <_>
          <internalNodes>
            0 -1 214 -1.1435931082814932e-04</internalNodes>
          <leafValues>
            3.0816417932510376e-01 -2.5092098116874695e-01</leafValues></_>
        <_>
          <internalNodes>
            0 -1 218 -9.4020192045718431e-04</internalNodes>
          <leafValues>
            6.1823314428329468e-01 -1.5167847275733948e-01</leafValues></_>
        <_>
          <internalNodes>
            0 -1 242 1.2929113581776619e-03</internalNodes>
          <leafValues>
            1.7861573398113251e-01 -6.1827766895294189e-01</leafValues></_></weakClassifiers></_>
    <!-- stage 17 -->
    <_>
      <maxWeakCount>11</maxWeakCount>
      <stageThreshold>-1.2182015180587769e+00</stageThreshold>
      <weakClassifiers>
        <_>
          <internalNodes>
            0 -1 38 -8.5568748414516449e-02</internalNodes>
          <leafValues>
            4.3999999761581421e-01 -5.8518517017364502e-01</leafValues></_>
        <_>
          <internalNodes>
            0 -1 217 -3.0078439522185363e-05</internalNodes>
          <leafValues>
            2.7317589521408081e-01 -3.1031581759452820e-01</leafValues></_>
        <_>
          <internalNodes>
            0 -1 168 -3.0171462640282698e-05</internalNodes>
          <leafValues>
            2.6139673590660095e-01 -3.2591173052787781e-01</leafValues></_>
        <_>
          <internalNodes>
            0 -1 136 3.7245343264658004e-05</internalNodes>
          <leafValues>
            -3.2733803987503052e-01 2.9140701889991760e-01</leafValues></_>
        <_>
          <internalNodes>
            0 -1 25 3.6192237166687846e-04</internalNodes>
          <leafValues>
            1.3800762593746185e-01 -5.4316484928131104e-01</leafValues></_>
        <_>
          <internalNodes>
            0 -1 119 -3.0521165172103792e-05</internalNodes>
          <leafValues>
            3.5625839233398438e-01 -2.3337443172931671e-01</leafValues></_>
        <_>
          <internalNodes>
            0 -1 59 6.8927546963095665e-03</internalNodes>
          <leafValues>
            -1.4830121397972107e-01 6.1090195178985596e-01</leafValues></_>
        <_>
          <internalNodes>
            0 -1 6 -1.0612867772579193e-03</internalNodes>
          <leafValues>
            -5.8700144290924072e-01 1.6970862448215485e-01</leafValues></_>
        <_>
          <internalNodes>
            0 -1 192 2.2908890969119966e-04</internalNodes>
          <leafValues>
            -2.3283216357231140e-01 3.4039461612701416e-01</leafValues></_>
        <_>
          <internalNodes>
            0 -1 173 -1.1163407005369663e-02</internalNodes>
          <leafValues>
            -1.0055298358201981e-01 7.4567902088165283e-01</leafValues></_>
        <_>
          <internalNodes>
            0 -1 174 -6.0854671755805612e-04</internalNodes>
          <leafValues>
            4.9048110842704773e-01 -1.5788342058658600e-01</leafValues></_></weakClassifiers></_>
    <!-- stage 18 -->
    <_>
      <maxWeakCount>13</maxWeakCount>
      <stageThreshold>-1.1040258407592773e+00</stageThreshold>
      <weakClassifiers>
        <_>
          <internalNodes>
            0 -1 39 9.7509473562240601e-04</internalNodes>
          <leafValues>
            -5.7246375083923340e-01 8.4615385532379150e-01</leafValues></_>
        <_>
          <internalNodes>
            0 -1 211 3.9609991014003754e-02</internalNodes>
          <leafValues>
            -1.8194092810153961e-01 5.4479146003723145e-01</leafValues></_>
        <_>
          <internalNodes>
            0 -1 83 4.2400388338137418e-05</internalNodes>
          <leafValues>
            -3.1989589333534241e-01 2.2381629049777985e-01</leafValues></_>
        <_>
          <internalNodes>
            0 -1 67 4.4556362554430962e-03</internalNodes>
          <leafValues>
            1.8100510537624359e-01 -3.4294533729553223e-01</leafValues></_>
        <_>
          <internalNodes>
            0 -1 34 1.1756874155253172e-03</internalNodes>
          <leafValues>
            1.0849543660879135e-01 -5.9564554691314697e-01</leafValues></_>
        <_>
          <internalNodes>
            0 -1 235 -3.3632881240919232e-05</internalNodes>
          <leafValues>
            2.7389472723007202e-01 -2.7224072813987732e-01</leafValues></_>
        <_>
          <internalNodes>
            0 -1 177 -2.6238095015287399e-03</internalNodes>
          <leafValues>
            4.7305047512054443e-01 -1.6667757928371429e-01</leafValues></_>
        <_>
          <internalNodes>
            0 -1 191 9.5700623933225870e-04</internalNodes>
          <leafValues>
            1.7369136214256287e-01 -4.5665121078491211e-01</leafValues></_>
        <_>
          <internalNodes>
            0 -1 27 -4.0589116513729095e-02</internalNodes>
          <leafValues>
            7.2851121425628662e-01 -1.2148062884807587e-01</leafValues></_>
        <_>
          <internalNodes>
            0 -1 107 -1.0159796103835106e-02</internalNodes>
          <leafValues>
            -8.1246769428253174e-01 1.1062525957822800e-01</leafValues></_>
        <_>
          <internalNodes>
            0 -1 170 -3.8277837447822094e-03</internalNodes>
          <leafValues>
            8.4391874074935913e-01 -1.1531808972358704e-01</leafValues></_>
        <_>
          <internalNodes>
            0 -1 72 4.7216080129146576e-03</internalNodes>
          <leafValues>
            1.7225982248783112e-01 -5.1165062189102173e-01</leafValues></_>
        <_>
          <internalNodes>
            0 -1 112 -1.9286317750811577e-02</internalNodes>
          <leafValues>
            -5.7938444614410400e-01 1.3145697116851807e-01</leafValues></_></weakClassifiers></_>
    <!-- stage 19 -->
    <_>
      <maxWeakCount>14</maxWeakCount>
      <stageThreshold>-1.1374503374099731e+00</stageThreshold>
      <weakClassifiers>
        <_>
          <internalNodes>
            0 -1 102 4.6554133296012878e-02</internalNodes>
          <leafValues>
            -5.7377046346664429e-01 6.2500000000000000e-01</leafValues></_>
        <_>
          <internalNodes>
            0 -1 87 -6.4695244655013084e-03</internalNodes>
          <leafValues>
            -1. -2.3057138547301292e-02</leafValues></_>
        <_>
          <internalNodes>
            0 -1 161 -5.6752629578113556e-02</internalNodes>
          <leafValues>
            -1. 5.9351295232772827e-02</leafValues></_>
        <_>
          <internalNodes>
            0 -1 152 -4.8817364586284384e-05</internalNodes>
          <leafValues>
            2.8421485424041748e-01 -2.0871584117412567e-01</leafValues></_>
        <_>
          <internalNodes>
            0 -1 76 -1.4314061263576150e-04</internalNodes>
          <leafValues>
            2.7080851793289185e-01 -2.2374887764453888e-01</leafValues></_>
        <_>
          <internalNodes>
            0 -1 156 -8.1500923261046410e-03</internalNodes>
          <leafValues>
            3.0428457260131836e-01 -2.1679975092411041e-01</leafValues></_>
        <_>
          <internalNodes>
            0 -1 115 -1.1153015494346619e-01</internalNodes>
          <leafValues>
            4.5882999897003174e-01 -1.8321695923805237e-01</leafValues></_>
        <_>
          <internalNodes>
            0 -1 66 -1.9166022539138794e-02</internalNodes>
          <leafValues>
            7.0193129777908325e-01 -1.1930652707815170e-01</leafValues></_>
        <_>
          <internalNodes>
            0 -1 13 9.8166405223309994e-04</internalNodes>
          <leafValues>
            1.4660367369651794e-01 -5.0344336032867432e-01</leafValues></_>
        <_>
          <internalNodes>
            0 -1 14 -6.3817100599408150e-03</internalNodes>
          <leafValues>
            5.0604486465454102e-01 -1.2662063539028168e-01</leafValues></_>
        <_>
          <internalNodes>
            0 -1 117 -3.5611945204436779e-03</internalNodes>
          <leafValues>
            -7.7130746841430664e-01 9.0836673974990845e-02</leafValues></_>
        <_>
          <internalNodes>
            0 -1 175 2.5456814910285175e-05</internalNodes>
          <leafValues>
            -2.4439127743244171e-01 3.3406475186347961e-01</leafValues></_>
        <_>
          <internalNodes>
            0 -1 93 2.4823611602187157e-02</internalNodes>
          <leafValues>
            -1.2826527655124664e-01 5.7239538431167603e-01</leafValues></_>
        <_>
          <internalNodes>
            0 -1 236 1.1577564873732626e-04</internalNodes>
          <leafValues>
            1.6734318435192108e-01 -4.6850797533988953e-01</leafValues></_></weakClassifiers></_>
    <!-- stage 20 -->
    <_>
      <maxWeakCount>16</maxWeakCount>
      <stageThreshold>-1.1984701156616211e+00</stageThreshold>
      <weakClassifiers>
        <_>
          <internalNodes>
            0 -1 171 1.7368717491626740e-01</internalNodes>
          <leafValues>
            -5.6678700447082520e-01 8.1818181276321411e-01</leafValues></_>
        <_>
          <internalNodes>
            0 -1 2 2.5694146752357483e-02</internalNodes>
          <leafValues>
            -3.5242444276809692e-01 2.0144441723823547e-01</leafValues></_>
        <_>
          <internalNodes>
            0 -1 202 -3.8850910641485825e-05</internalNodes>
          <leafValues>
            2.8584519028663635e-01 -2.4808856844902039e-01</leafValues></_>
        <_>
          <internalNodes>
            0 -1 203 -8.6007751524448395e-03</internalNodes>
          <leafValues>
            6.2072020769119263e-01 -9.8417349159717560e-02</leafValues></_>
        <_>
          <internalNodes>
            0 -1 75 -8.4947407245635986e-02</internalNodes>
          <leafValues>
            8.7294958531856537e-02 -8.1699687242507935e-01</leafValues></_>
        <_>
          <internalNodes>
            0 -1 110 8.4520346717908978e-04</internalNodes>
          <leafValues>
            -1.5968869626522064e-01 3.9463040232658386e-01</leafValues></_>
        <_>
          <internalNodes>
            0 -1 30 -5.8096763677895069e-04</internalNodes>
          <leafValues>
            -5.7616746425628662e-01 1.0767053067684174e-01</leafValues></_>
        <_>
          <internalNodes>
            0 -1 216 -7.0107157807797194e-04</internalNodes>
          <leafValues>
            -4.8837223649024963e-01 1.5330141782760620e-01</leafValues></_>
        <_>
          <internalNodes>
            0 -1 204 -2.3005753755569458e-02</internalNodes>
          <leafValues>
            1.3153506815433502e-01 -6.0718762874603271e-01</leafValues></_>
        <_>
          <internalNodes>
            0 -1 18 -2.0118857920169830e-01</internalNodes>
          <leafValues>
            -1.4406818151473999e-01 5.0456327199935913e-01</leafValues></_>
        <_>
          <internalNodes>
            0 -1 43 -6.8013727664947510e-02</internalNodes>
          <leafValues>
            2.4345651268959045e-01 -2.7916753292083740e-01</leafValues></_>
        <_>
          <internalNodes>
            0 -1 213 -9.5350425690412521e-03</internalNodes>
          <leafValues>
            -2.2587732970714569e-01 3.2281595468521118e-01</leafValues></_>
        <_>
          <internalNodes>
            0 -1 199 1.5395373338833451e-04</internalNodes>
          <leafValues>
            -2.2939962148666382e-01 2.8548336029052734e-01</leafValues></_>
        <_>
          <internalNodes>
            0 -1 188 -2.2416513413190842e-02</internalNodes>
          <leafValues>
            7.5663661956787109e-01 -8.6276404559612274e-02</leafValues></_>
        <_>
          <internalNodes>
            0 -1 86 6.9742475170642138e-04</internalNodes>
          <leafValues>
            -1.8866991996765137e-01 3.5868838429450989e-01</leafValues></_>
        <_>
          <internalNodes>
            0 -1 132 -5.1596277626231313e-04</internalNodes>
          <leafValues>
            -5.2046972513198853e-01 1.3877324759960175e-01</leafValues></_></weakClassifiers></_>
    <!-- stage 21 -->
    <_>
      <maxWeakCount>18</maxWeakCount>
      <stageThreshold>-1.0722059011459351e+00</stageThreshold>
      <weakClassifiers>
        <_>
          <internalNodes>
            0 -1 145 -4.2589162476360798e-03</internalNodes>
          <leafValues>
            2.9032257199287415e-01 -5.8801496028900146e-01</leafValues></_>
        <_>
          <internalNodes>
            0 -1 201 -1.5766181051731110e-02</internalNodes>
          <leafValues>
            -1. -1.5097767114639282e-02</leafValues></_>
        <_>
          <internalNodes>
            0 -1 206 -1.6847079677972943e-04</internalNodes>
          <leafValues>
            2.9966115951538086e-01 -1.8999399244785309e-01</leafValues></_>
        <_>
          <internalNodes>
            0 -1 141 -9.7410548478364944e-03</internalNodes>
          <leafValues>
            -6.8613272905349731e-01 8.8110089302062988e-02</leafValues></_>
        <_>
          <internalNodes>
            0 -1 116 -2.4978518486022949e-03</internalNodes>
          <leafValues>
            -5.9741508960723877e-01 1.2334536761045456e-01</leafValues></_>
        <_>
          <internalNodes>
            0 -1 46 -5.9593422338366508e-04</internalNodes>
          <leafValues>
            -6.8525415658950806e-01 7.6211526989936829e-02</leafValues></_>
        <_>
          <internalNodes>
            0 -1 120 -1.0338798165321350e-02</internalNodes>
          <leafValues>
            8.1756317615509033e-01 -1.0010831058025360e-01</leafValues></_>
        <_>
          <internalNodes>
            0 -1 53 -1.2790989130735397e-03</internalNodes>
          <leafValues>
            4.2690068483352661e-01 -1.4110697805881500e-01</leafValues></_>
        <_>
          <internalNodes>
            0 -1 143 1.4586379984393716e-03</internalNodes>
          <leafValues>
            -1.7279863357543945e-01 3.8201591372489929e-01</leafValues></_>
        <_>
          <internalNodes>
            0 -1 100 -6.3742892816662788e-03</internalNodes>
          <leafValues>
            -1.7644786834716797e-01 3.9054799079895020e-01</leafValues></_>
        <_>
          <internalNodes>
            0 -1 52 5.9218786191195250e-04</internalNodes>
          <leafValues>
            -1.8562255799770355e-01 3.3567172288894653e-01</leafValues></_>
        <_>
          <internalNodes>
            0 -1 114 5.9944363310933113e-03</internalNodes>
          <leafValues>
            7.3972001671791077e-02 -7.8795707225799561e-01</leafValues></_>
        <_>
          <internalNodes>
            0 -1 189 -2.7535483241081238e-02</internalNodes>
          <leafValues>
            6.9255673885345459e-01 -1.0675932466983795e-01</leafValues></_>
        <_>
          <internalNodes>
            0 -1 31 4.5784348913002759e-05</internalNodes>
          <leafValues>
            2.4937851727008820e-01 -3.2086950540542603e-01</leafValues></_>
        <_>
          <internalNodes>
            0 -1 94 -5.7554645463824272e-03</internalNodes>
          <leafValues>
            6.1542063951492310e-01 -1.2637019157409668e-01</leafValues></_>
        <_>
          <internalNodes>
            0 -1 21 1.2762816622853279e-02</internalNodes>
          <leafValues>
            -1.3209106028079987e-01 5.7434469461441040e-01</leafValues></_>
        <_>
          <internalNodes>
            0 -1 149 -9.9147651344537735e-03</internalNodes>
          <leafValues>
            -4.2474061250686646e-01 1.6993179917335510e-01</leafValues></_>
        <_>
          <internalNodes>
            0 -1 157 6.6690627136267722e-05</internalNodes>
          <leafValues>
            -2.2811920940876007e-01 3.2779520750045776e-01</leafValues></_></weakClassifiers></_>
    <!-- stage 22 -->
    <_>
      <maxWeakCount>14</maxWeakCount>
      <stageThreshold>-1.3733581304550171e+00</stageThreshold>
      <weakClassifiers>
        <_>
          <internalNodes>
            0 -1 159 -1.4030473306775093e-02</internalNodes>
          <leafValues>
            8.1818181276321411e-01 -5.6678700447082520e-01</leafValues></_>
        <_>
          <internalNodes>
            0 -1 227 6.9982302375137806e-04</internalNodes>
          <leafValues>
            -1.0859431698918343e-02 -1.</leafValues></_>
        <_>
          <internalNodes>
            0 -1 169 -2.2414028644561768e-02</internalNodes>
          <leafValues>
            -8.1143534183502197e-01 7.8673608601093292e-02</leafValues></_>
        <_>
          <internalNodes>
            0 -1 122 -1.0250722989439964e-02</internalNodes>
          <leafValues>
            2.9419100284576416e-01 -2.0979997515678406e-01</leafValues></_>
        <_>
          <internalNodes>
            0 -1 96 1.1787374969571829e-03</internalNodes>
          <leafValues>
            -2.4335183203220367e-01 2.7285486459732056e-01</leafValues></_>
        <_>
          <internalNodes>
            0 -1 135 -5.7995647192001343e-02</internalNodes>
          <leafValues>
            3.7490919232368469e-01 -2.2446043789386749e-01</leafValues></_>
        <_>
          <internalNodes>
            0 -1 79 -7.1331977844238281e-02</internalNodes>
          <leafValues>
            1.6175945103168488e-01 -4.5195165276527405e-01</leafValues></_>
        <_>
          <internalNodes>
            0 -1 50 3.4994161687791348e-03</internalNodes>
          <leafValues>
            1.5242749452590942e-01 -5.0883567333221436e-01</leafValues></_>
        <_>
          <internalNodes>
            0 -1 85 -1.0253305081278086e-03</internalNodes>
          <leafValues>
            3.7842503190040588e-01 -1.9808220863342285e-01</leafValues></_>
        <_>
          <internalNodes>
            0 -1 131 -7.7004631748422980e-04</internalNodes>
          <leafValues>
            -7.1702200174331665e-01 1.1230457574129105e-01</leafValues></_>
        <_>
          <internalNodes>
            0 -1 243 -1.7132568173110485e-03</internalNodes>
          <leafValues>
            -1.1890624463558197e-01 7.6465296745300293e-01</leafValues></_>
        <_>
          <internalNodes>
            0 -1 84 -3.1440641032531857e-04</internalNodes>
          <leafValues>
            -5.5142241716384888e-01 1.4019973576068878e-01</leafValues></_>
        <_>
          <internalNodes>
            0 -1 44 -5.8029463980346918e-04</internalNodes>
          <leafValues>
            3.5669821500778198e-01 -2.0833203196525574e-01</leafValues></_>
        <_>
          <internalNodes>
            0 -1 165 2.3820775095373392e-04</internalNodes>
          <leafValues>
            -2.3814383149147034e-01 2.8339862823486328e-01</leafValues></_></weakClassifiers></_>
    <!-- stage 23 -->
    <_>
      <maxWeakCount>11</maxWeakCount>
      <stageThreshold>-8.3725893497467041e-01</stageThreshold>
      <weakClassifiers>
        <_>
          <internalNodes>
            0 -1 181 -1.0485725477337837e-02</internalNodes>
          <leafValues>
            5.0000000000000000e-01 -5.7798165082931519e-01</leafValues></_>
        <_>
          <internalNodes>
            0 -1 155 7.7135637402534485e-03</internalNodes>
          <leafValues>
            -1.9495368003845215e-02 -1.</leafValues></_>
        <_>
          <internalNodes>
            0 -1 183 1.7762385541573167e-03</internalNodes>
          <leafValues>
            -2.0613658428192139e-01 2.7400535345077515e-01</leafValues></_>
        <_>
          <internalNodes>
            0 -1 126 -3.1535839661955833e-03</internalNodes>
          <leafValues>
            -4.7662428021430969e-01 1.2466175854206085e-01</leafValues></_>
        <_>
          <internalNodes>
            0 -1 70 -6.8040648475289345e-03</internalNodes>
          <leafValues>
            6.8193656206130981e-01 -1.1086797714233398e-01</leafValues></_>
        <_>
          <internalNodes>
            0 -1 224 -4.2699091136455536e-03</internalNodes>
          <leafValues>
            -9.0249985456466675e-01 7.1682237088680267e-02</leafValues></_>
        <_>
          <internalNodes>
            0 -1 187 -8.3384774625301361e-03</internalNodes>
          <leafValues>
            -4.9126178026199341e-01 1.0633367300033569e-01</leafValues></_>
        <_>
          <internalNodes>
            0 -1 232 -4.5461321133188903e-04</internalNodes>
          <leafValues>
            -5.1423943042755127e-01 1.1295124888420105e-01</leafValues></_>
        <_>
          <internalNodes>
            0 -1 88 -2.3023939132690430e-01</internalNodes>
          <leafValues>
            4.2557588219642639e-01 -1.3273002207279205e-01</leafValues></_>
        <_>
          <internalNodes>
            0 -1 124 -3.5818945616483688e-03</internalNodes>
          <leafValues>
            5.2076965570449829e-01 -1.2398827075958252e-01</leafValues></_>
        <_>
          <internalNodes>
            0 -1 163 -6.2934935092926025e-02</internalNodes>
          <leafValues>
            -1. 6.5360762178897858e-02</leafValues></_></weakClassifiers></_></stages>
  <features>
    <_>
      <rects>
        <_>
          0 0 2 2 -1.</_>
        <_>
          0 0 1 1 2.</_>
        <_>
          1 1 1 1 2.</_></rects>
      <tilted>0</tilted></_>
    <_>
      <rects>
        <_>
          0 0 3 9 -1.</_>
        <_>
          0 3 3 3 2.</_></rects>
      <tilted>0</tilted></_>
    <_>
      <rects>
        <_>
          0 0 15 8 -1.</_>
        <_>
          0 4 15 4 2.</_></rects>
      <tilted>0</tilted></_>
    <_>
      <rects>
        <_>
          0 0 15 12 -1.</_>
        <_>
          0 6 15 6 2.</_></rects>
      <tilted>0</tilted></_>
    <_>
      <rects>
        <_>
          0 0 17 4 -1.</_>
        <_>
          0 2 17 2 2.</_></rects>
      <tilted>0</tilted></_>
    <_>
      <rects>
        <_>
          0 0 24 12 -1.</_>
        <_>
          0 6 24 6 2.</_></rects>
      <tilted>0</tilted></_>
    <_>
      <rects>
        <_>
          0 1 1 4 -1.</_>
        <_>
          0 3 1 2 2.</_></rects>
      <tilted>0</tilted></_>
    <_>
      <rects>
        <_>
          0 2 9 5 -1.</_>
        <_>
          3 2 3 5 2.</_></rects>
      <tilted>0</tilted></_>
    <_>
      <rects>
        <_>
          0 2 10 14 -1.</_>
        <_>
          5 2 5 14 2.</_></rects>
      <tilted>0</tilted></_>
    <_>
      <rects>
        <_>
          0 3 2 8 -1.</_>
        <_>
          1 3 1 8 2.</_></rects>
      <tilted>0</tilted></_>
    <_>
      <rects>
        <_>
          0 3 15 2 -1.</_>
        <_>
          0 4 15 1 2.</_></rects>
      <tilted>0</tilted></_>
    <_>
      <rects>
        <_>
          0 4 1 6 -1.</_>
        <_>
          0 7 1 3 2.</_></rects>
      <tilted>0</tilted></_>
    <_>
      <rects>
        <_>
          0 5 2 2 -1.</_>
        <_>
          0 6 2 1 2.</_></rects>
      <tilted>0</tilted></_>
    <_>
      <rects>
        <_>
          0 8 1 4 -1.</_>
        <_>
          0 10 1 2 2.</_></rects>
      <tilted>0</tilted></_>
    <_>
      <rects>
        <_>
          0 9 6 4 -1.</_>
        <_>
          0 9 3 2 2.</_>
        <_>
          3 11 3 2 2.</_></rects>
      <tilted>0</tilted></_>
    <_>
      <rects>
        <_>
          0 9 16 8 -1.</_>
        <_>
          0 9 8 4 2.</_>
        <_>
          8 13 8 4 2.</_></rects>
      <tilted>0</tilted></_>
    <_>
      <rects>
        <_>
          0 10 1 2 -1.</_>
        <_>
          0 11 1 1 2.</_></rects>
      <tilted>0</tilted></_>
    <_>
      <rects>
        <_>
          0 10 3 14 -1.</_>
        <_>
          1 10 1 14 2.</_></rects>
      <tilted>0</tilted></_>
    <_>
      <rects>
        <_>
          0 10 21 14 -1.</_>
        <_>
          7 10 7 14 2.</_></rects>
      <tilted>0</tilted></_>
    <_>
      <rects>
        <_>
          0 11 1 4 -1.</_>
        <_>
          0 13 1 2 2.</_></rects>
      <tilted>0</tilted></_>
    <_>
      <rects>
        <_>
          0 11 1 9 -1.</_>
        <_>
          0 14 1 3 2.</_></rects>
      <tilted>0</tilted></_>
    <_>
      <rects>
        <_>
          0 11 4 5 -1.</_>
        <_>
          2 11 2 5 2.</_></rects>
      <tilted>0</tilted></_>
    <_>
      <rects>
        <_>
          0 12 2 2 -1.</_>
        <_>
          0 13 2 1 2.</_></rects>
      <tilted>0</tilted></_>
    <_>
      <rects>
        <_>
          0 12 6 1 -1.</_>
        <_>
          3 12 3 1 2.</_></rects>
      <tilted>0</tilted></_>
    <_>
      <rects>
        <_>
          0 13 1 6 -1.</_>
        <_>
          0 15 1 2 2.</_></rects>
      <tilted>0</tilted></_>
    <_>
      <rects>
        <_>
          0 17 2 2 -1.</_>
        <_>
          0 18 2 1 2.</_></rects>
      <tilted>0</tilted></_>
    <_>
      <rects>
        <_>
          0 17 6 1 -1.</_>
        <_>
          3 17 3 1 2.</_></rects>
      <tilted>0</tilted></_>
    <_>
      <rects>
        <_>
          0 18 16 6 -1.</_>
        <_>
          0 18 8 3 2.</_>
        <_>
          8 21 8 3 2.</_></rects>
      <tilted>0</tilted></_>
    <_>
      <rects>
        <_>
          0 19 2 4 -1.</_>
        <_>
          0 19 1 2 2.</_>
        <_>
          1 21 1 2 2.</_></rects>
      <tilted>0</tilted></_>
    <_>
      <rects>
        <_>
          0 20 2 2 -1.</_>
        <_>
          0 20 1 1 2.</_>
        <_>
          1 21 1 1 2.</_></rects>
      <tilted>0</tilted></_>
    <_>
      <rects>
        <_>
          0 20 2 4 -1.</_>
        <_>
          0 20 1 2 2.</_>
        <_>
          1 22 1 2 2.</_></rects>
      <tilted>0</tilted></_>
    <_>
      <rects>
        <_>
          0 20 4 1 -1.</_>
        <_>
          2 20 2 1 2.</_></rects>
      <tilted>0</tilted></_>
    <_>
      <rects>
        <_>
          0 20 2 2 -1.</_>
        <_>
          0 21 2 1 2.</_></rects>
      <tilted>0</tilted></_>
    <_>
      <rects>
        <_>
          0 23 3 1 -1.</_>
        <_>
          1 23 1 1 2.</_></rects>
      <tilted>0</tilted></_>
    <_>
      <rects>
        <_>
          0 23 4 1 -1.</_>
        <_>
          2 23 2 1 2.</_></rects>
      <tilted>0</tilted></_>
    <_>
      <rects>
        <_>
          1 0 2 2 -1.</_>
        <_>
          1 0 1 1 2.</_>
        <_>
          2 1 1 1 2.</_></rects>
      <tilted>0</tilted></_>
    <_>
      <rects>
        <_>
          1 0 3 5 -1.</_>
        <_>
          2 0 1 5 2.</_></rects>
      <tilted>0</tilted></_>
    <_>
      <rects>
        <_>
          1 0 16 1 -1.</_>
        <_>
          9 0 8 1 2.</_></rects>
      <tilted>0</tilted></_>
    <_>
      <rects>
        <_>
          1 0 15 8 -1.</_>
        <_>
          1 4 15 4 2.</_></rects>
      <tilted>0</tilted></_>
    <_>
      <rects>
        <_>
          1 2 3 21 -1.</_>
        <_>
          1 9 3 7 2.</_></rects>
      <tilted>0</tilted></_>
    <_>
      <rects>
        <_>
          1 2 21 22 -1.</_>
        <_>
          1 13 21 11 2.</_></rects>
      <tilted>0</tilted></_>
    <_>
      <rects>
        <_>
          1 6 4 6 -1.</_>
        <_>
          1 8 4 2 2.</_></rects>
      <tilted>0</tilted></_>
    <_>
      <rects>
        <_>
          1 9 6 1 -1.</_>
        <_>
          4 9 3 1 2.</_></rects>
      <tilted>0</tilted></_>
    <_>
      <rects>
        <_>
          1 12 21 2 -1.</_>
        <_>
          8 12 7 2 2.</_></rects>
      <tilted>0</tilted></_>
    <_>
      <rects>
        <_>
          1 13 4 1 -1.</_>
        <_>
          3 13 2 1 2.</_></rects>
      <tilted>0</tilted></_>
    <_>
      <rects>
        <_>
          1 14 6 1 -1.</_>
        <_>
          4 14 3 1 2.</_></rects>
      <tilted>0</tilted></_>
    <_>
      <rects>
        <_>
          1 22 2 1 -1.</_>
        <_>
          2 22 1 1 2.</_></rects>
      <tilted>0</tilted></_>
    <_>
      <rects>
        <_>
          2 0 2 2 -1.</_>
        <_>
          2 0 1 1 2.</_>
        <_>
          3 1 1 1 2.</_></rects>
      <tilted>0</tilted></_>
    <_>
      <rects>
        <_>
          2 1 2 2 -1.</_>
        <_>
          2 1 1 1 2.</_>
        <_>
          3 2 1 1 2.</_></rects>
      <tilted>0</tilted></_>
    <_>
      <rects>
        <_>
          2 1 11 6 -1.</_>
        <_>
          2 4 11 3 2.</_></rects>
      <tilted>0</tilted></_>
    <_>
      <rects>
        <_>
          2 6 11 2 -1.</_>
        <_>
          2 7 11 1 2.</_></rects>
      <tilted>0</tilted></_>
    <_>
      <rects>
        <_>
          2 7 2 2 -1.</_>
        <_>
          2 7 1 1 2.</_>
        <_>
          3 8 1 1 2.</_></rects>
      <tilted>0</tilted></_>
    <_>
      <rects>
        <_>
          2 7 2 12 -1.</_>
        <_>
          2 7 1 6 2.</_>
        <_>
          3 13 1 6 2.</_></rects>
      <tilted>0</tilted></_>
    <_>
      <rects>
        <_>
          2 15 4 2 -1.</_>
        <_>
          2 15 2 1 2.</_>
        <_>
          4 16 2 1 2.</_></rects>
      <tilted>0</tilted></_>
    <_>
      <rects>
        <_>
          3 0 4 3 -1.</_>
        <_>
          3 1 4 1 2.</_></rects>
      <tilted>0</tilted></_>
    <_>
      <rects>
        <_>
          3 0 8 4 -1.</_>
        <_>
          3 2 8 2 2.</_></rects>
      <tilted>0</tilted></_>
    <_>
      <rects>
        <_>
          3 0 10 8 -1.</_>
        <_>
          3 4 10 4 2.</_></rects>
      <tilted>0</tilted></_>
    <_>
      <rects>
        <_>
          3 0 12 12 -1.</_>
        <_>
          3 6 12 6 2.</_></rects>
      <tilted>0</tilted></_>
    <_>
      <rects>
        <_>
          3 1 14 18 -1.</_>
        <_>
          3 10 14 9 2.</_></rects>
      <tilted>0</tilted></_>
    <_>
      <rects>
        <_>
          3 4 4 4 -1.</_>
        <_>
          3 4 2 2 2.</_>
        <_>
          5 6 2 2 2.</_></rects>
      <tilted>0</tilted></_>
    <_>
      <rects>
        <_>
          3 4 8 6 -1.</_>
        <_>
          7 4 4 6 2.</_></rects>
      <tilted>0</tilted></_>
    <_>
      <rects>
        <_>
          3 5 20 9 -1.</_>
        <_>
          3 8 20 3 2.</_></rects>
      <tilted>0</tilted></_>
    <_>
      <rects>
        <_>
          3 7 4 4 -1.</_>
        <_>
          3 7 2 2 2.</_>
        <_>
          5 9 2 2 2.</_></rects>
      <tilted>0</tilted></_>
    <_>
      <rects>
        <_>
          3 15 2 2 -1.</_>
        <_>
          3 15 1 1 2.</_>
        <_>
          4 16 1 1 2.</_></rects>
      <tilted>0</tilted></_>
    <_>
      <rects>
        <_>
          3 15 21 6 -1.</_>
        <_>
          3 18 21 3 2.</_></rects>
      <tilted>0</tilted></_>
    <_>
      <rects>
        <_>
          3 16 2 3 -1.</_>
        <_>
          4 16 1 3 2.</_></rects>
      <tilted>0</tilted></_>
    <_>
      <rects>
        <_>
          3 19 6 4 -1.</_>
        <_>
          6 19 3 4 2.</_></rects>
      <tilted>0</tilted></_>
    <_>
      <rects>
        <_>
          4 0 18 1 -1.</_>
        <_>
          13 0 9 1 2.</_></rects>
      <tilted>0</tilted></_>
    <_>
      <rects>
        <_>
          4 0 15 6 -1.</_>
        <_>
          4 2 15 2 2.</_></rects>
      <tilted>0</tilted></_>
    <_>
      <rects>
        <_>
          4 2 2 8 -1.</_>
        <_>
          4 2 1 4 2.</_>
        <_>
          5 6 1 4 2.</_></rects>
      <tilted>0</tilted></_>
    <_>
      <rects>
        <_>
          4 2 4 4 -1.</_>
        <_>
          4 2 2 2 2.</_>
        <_>
          6 4 2 2 2.</_></rects>
      <tilted>0</tilted></_>
    <_>
      <rects>
        <_>
          4 2 10 5 -1.</_>
        <_>
          9 2 5 5 2.</_></rects>
      <tilted>0</tilted></_>
    <_>
      <rects>
        <_>
          4 7 14 2 -1.</_>
        <_>
          4 7 7 1 2.</_>
        <_>
          11 8 7 1 2.</_></rects>
      <tilted>0</tilted></_>
    <_>
      <rects>
        <_>
          4 8 2 2 -1.</_>
        <_>
          4 8 1 1 2.</_>
        <_>
          5 9 1 1 2.</_></rects>
      <tilted>0</tilted></_>
    <_>
      <rects>
        <_>
          4 8 2 2 -1.</_>
        <_>
          5 8 1 2 2.</_></rects>
      <tilted>0</tilted></_>
    <_>
      <rects>
        <_>
          4 9 9 11 -1.</_>
        <_>
          7 9 3 11 2.</_></rects>
      <tilted>0</tilted></_>
    <_>
      <rects>
        <_>
          4 10 4 2 -1.</_>
        <_>
          4 10 2 1 2.</_>
        <_>
          6 11 2 1 2.</_></rects>
      <tilted>0</tilted></_>
    <_>
      <rects>
        <_>
          4 12 4 2 -1.</_>
        <_>
          4 12 2 1 2.</_>
        <_>
          6 13 2 1 2.</_></rects>
      <tilted>0</tilted></_>
    <_>
      <rects>
        <_>
          4 12 19 3 -1.</_>
        <_>
          4 13 19 1 2.</_></rects>
      <tilted>0</tilted></_>
    <_>
      <rects>
        <_>
          4 16 15 5 -1.</_>
        <_>
          9 16 5 5 2.</_></rects>
      <tilted>0</tilted></_>
    <_>
      <rects>
        <_>
          4 18 15 6 -1.</_>
        <_>
          4 21 15 3 2.</_></rects>
      <tilted>0</tilted></_>
    <_>
      <rects>
        <_>
          5 0 2 2 -1.</_>
        <_>
          6 0 1 2 2.</_></rects>
      <tilted>0</tilted></_>
    <_>
      <rects>
        <_>
          5 0 11 2 -1.</_>
        <_>
          5 1 11 1 2.</_></rects>
      <tilted>0</tilted></_>
    <_>
      <rects>
        <_>
          5 0 12 2 -1.</_>
        <_>
          5 1 12 1 2.</_></rects>
      <tilted>0</tilted></_>
    <_>
      <rects>
        <_>
          5 2 2 1 -1.</_>
        <_>
          6 2 1 1 2.</_></rects>
      <tilted>0</tilted></_>
    <_>
      <rects>
        <_>
          5 2 3 4 -1.</_>
        <_>
          5 4 3 2 2.</_></rects>
      <tilted>0</tilted></_>
    <_>
      <rects>
        <_>
          5 3 2 4 -1.</_>
        <_>
          5 3 1 2 2.</_>
        <_>
          6 5 1 2 2.</_></rects>
      <tilted>0</tilted></_>
    <_>
      <rects>
        <_>
          5 5 7 2 -1.</_>
        <_>
          5 6 7 1 2.</_></rects>
      <tilted>0</tilted></_>
    <_>
      <rects>
        <_>
          5 5 18 18 -1.</_>
        <_>
          14 5 9 18 2.</_></rects>
      <tilted>0</tilted></_>
    <_>
      <rects>
        <_>
          5 7 3 2 -1.</_>
        <_>
          5 8 3 1 2.</_></rects>
      <tilted>0</tilted></_>
    <_>
      <rects>
        <_>
          5 11 9 1 -1.</_>
        <_>
          8 11 3 1 2.</_></rects>
      <tilted>0</tilted></_>
    <_>
      <rects>
        <_>
          5 12 2 2 -1.</_>
        <_>
          5 12 1 1 2.</_>
        <_>
          6 13 1 1 2.</_></rects>
      <tilted>0</tilted></_>
    <_>
      <rects>
        <_>
          5 13 2 2 -1.</_>
        <_>
          5 13 1 1 2.</_>
        <_>
          6 14 1 1 2.</_></rects>
      <tilted>0</tilted></_>
    <_>
      <rects>
        <_>
          5 16 12 6 -1.</_>
        <_>
          5 16 6 3 2.</_>
        <_>
          11 19 6 3 2.</_></rects>
      <tilted>0</tilted></_>
    <_>
      <rects>
        <_>
          5 21 8 1 -1.</_>
        <_>
          9 21 4 1 2.</_></rects>
      <tilted>0</tilted></_>
    <_>
      <rects>
        <_>
          6 2 18 15 -1.</_>
        <_>
          15 2 9 15 2.</_></rects>
      <tilted>0</tilted></_>
    <_>
      <rects>
        <_>
          6 8 4 7 -1.</_>
        <_>
          8 8 2 7 2.</_></rects>
      <tilted>0</tilted></_>
    <_>
      <rects>
        <_>
          6 9 12 6 -1.</_>
        <_>
          10 9 4 6 2.</_></rects>
      <tilted>0</tilted></_>
    <_>
      <rects>
        <_>
          6 10 6 4 -1.</_>
        <_>
          9 10 3 4 2.</_></rects>
      <tilted>0</tilted></_>
    <_>
      <rects>
        <_>
          6 14 2 2 -1.</_>
        <_>
          6 14 1 1 2.</_>
        <_>
          7 15 1 1 2.</_></rects>
      <tilted>0</tilted></_>
    <_>
      <rects>
        <_>
          6 14 1 6 -1.</_>
        <_>
          6 16 1 2 2.</_></rects>
      <tilted>0</tilted></_>
    <_>
      <rects>
        <_>
          6 16 2 2 -1.</_>
        <_>
          6 16 1 1 2.</_>
        <_>
          7 17 1 1 2.</_></rects>
      <tilted>0</tilted></_>
    <_>
      <rects>
        <_>
          6 20 18 4 -1.</_>
        <_>
          6 22 18 2 2.</_></rects>
      <tilted>0</tilted></_>
    <_>
      <rects>
        <_>
          7 2 2 3 -1.</_>
        <_>
          8 2 1 3 2.</_></rects>
      <tilted>0</tilted></_>
    <_>
      <rects>
        <_>
          7 2 16 18 -1.</_>
        <_>
          7 11 16 9 2.</_></rects>
      <tilted>0</tilted></_>
    <_>
      <rects>
        <_>
          7 6 2 2 -1.</_>
        <_>
          7 6 1 1 2.</_>
        <_>
          8 7 1 1 2.</_></rects>
      <tilted>0</tilted></_>
    <_>
      <rects>
        <_>
          7 8 17 8 -1.</_>
        <_>
          7 12 17 4 2.</_></rects>
      <tilted>0</tilted></_>
    <_>
      <rects>
        <_>
          7 15 17 2 -1.</_>
        <_>
          7 16 17 1 2.</_></rects>
      <tilted>0</tilted></_>
    <_>
      <rects>
        <_>
          7 19 2 2 -1.</_>
        <_>
          7 19 1 1 2.</_>
        <_>
          8 20 1 1 2.</_></rects>
      <tilted>0</tilted></_>
    <_>
      <rects>
        <_>
          8 0 1 2 -1.</_>
        <_>
          8 1 1 1 2.</_></rects>
      <tilted>0</tilted></_>
    <_>
      <rects>
        <_>
          8 3 2 4 -1.</_>
        <_>
          8 3 1 2 2.</_>
        <_>
          9 5 1 2 2.</_></rects>
      <tilted>0</tilted></_>
    <_>
      <rects>
        <_>
          8 6 2 2 -1.</_>
        <_>
          8 6 1 1 2.</_>
        <_>
          9 7 1 1 2.</_></rects>
      <tilted>0</tilted></_>
    <_>
      <rects>
        <_>
          8 7 8 5 -1.</_>
        <_>
          12 7 4 5 2.</_></rects>
      <tilted>0</tilted></_>
    <_>
      <rects>
        <_>
          8 9 2 2 -1.</_>
        <_>
          8 9 1 1 2.</_>
        <_>
          9 10 1 1 2.</_></rects>
      <tilted>0</tilted></_>
    <_>
      <rects>
        <_>
          8 9 2 7 -1.</_>
        <_>
          9 9 1 7 2.</_></rects>
      <tilted>0</tilted></_>
    <_>
      <rects>
        <_>
          8 9 16 8 -1.</_>
        <_>
          16 9 8 8 2.</_></rects>
      <tilted>0</tilted></_>
    <_>
      <rects>
        <_>
          8 13 2 4 -1.</_>
        <_>
          9 13 1 4 2.</_></rects>
      <tilted>0</tilted></_>
    <_>
      <rects>
        <_>
          8 17 2 6 -1.</_>
        <_>
          8 17 1 3 2.</_>
        <_>
          9 20 1 3 2.</_></rects>
      <tilted>0</tilted></_>
    <_>
      <rects>
        <_>
          9 2 1 4 -1.</_>
        <_>
          9 4 1 2 2.</_></rects>
      <tilted>0</tilted></_>
    <_>
      <rects>
        <_>
          9 5 2 2 -1.</_>
        <_>
          9 6 2 1 2.</_></rects>
      <tilted>0</tilted></_>
    <_>
      <rects>
        <_>
          9 5 4 4 -1.</_>
        <_>
          9 5 2 2 2.</_>
        <_>
          11 7 2 2 2.</_></rects>
      <tilted>0</tilted></_>
    <_>
      <rects>
        <_>
          9 8 2 12 -1.</_>
        <_>
          9 12 2 4 2.</_></rects>
      <tilted>0</tilted></_>
    <_>
      <rects>
        <_>
          9 8 9 6 -1.</_>
        <_>
          9 11 9 3 2.</_></rects>
      <tilted>0</tilted></_>
    <_>
      <rects>
        <_>
          9 9 4 4 -1.</_>
        <_>
          9 9 2 2 2.</_>
        <_>
          11 11 2 2 2.</_></rects>
      <tilted>0</tilted></_>
    <_>
      <rects>
        <_>
          9 11 4 4 -1.</_>
        <_>
          9 11 2 2 2.</_>
        <_>
          11 13 2 2 2.</_></rects>
      <tilted>0</tilted></_>
    <_>
      <rects>
        <_>
          9 12 7 6 -1.</_>
        <_>
          9 15 7 3 2.</_></rects>
      <tilted>0</tilted></_>
    <_>
      <rects>
        <_>
          9 13 2 9 -1.</_>
        <_>
          10 13 1 9 2.</_></rects>
      <tilted>0</tilted></_>
    <_>
      <rects>
        <_>
          9 16 8 1 -1.</_>
        <_>
          13 16 4 1 2.</_></rects>
      <tilted>0</tilted></_>
    <_>
      <rects>
        <_>
          9 17 6 7 -1.</_>
        <_>
          11 17 2 7 2.</_></rects>
      <tilted>0</tilted></_>
    <_>
      <rects>
        <_>
          9 19 4 4 -1.</_>
        <_>
          11 19 2 4 2.</_></rects>
      <tilted>0</tilted></_>
    <_>
      <rects>
        <_>
          9 21 2 2 -1.</_>
        <_>
          9 21 1 1 2.</_>
        <_>
          10 22 1 1 2.</_></rects>
      <tilted>0</tilted></_>
    <_>
      <rects>
        <_>
          10 0 2 1 -1.</_>
        <_>
          11 0 1 1 2.</_></rects>
      <tilted>0</tilted></_>
    <_>
      <rects>
        <_>
          10 0 2 2 -1.</_>
        <_>
          10 0 1 1 2.</_>
        <_>
          11 1 1 1 2.</_></rects>
      <tilted>0</tilted></_>
    <_>
      <rects>
        <_>
          10 1 2 9 -1.</_>
        <_>
          10 4 2 3 2.</_></rects>
      <tilted>0</tilted></_>
    <_>
      <rects>
        <_>
          10 4 6 2 -1.</_>
        <_>
          10 4 3 1 2.</_>
        <_>
          13 5 3 1 2.</_></rects>
      <tilted>0</tilted></_>
    <_>
      <rects>
        <_>
          10 4 10 17 -1.</_>
        <_>
          15 4 5 17 2.</_></rects>
      <tilted>0</tilted></_>
    <_>
      <rects>
        <_>
          10 7 2 2 -1.</_>
        <_>
          10 7 1 1 2.</_>
        <_>
          11 8 1 1 2.</_></rects>
      <tilted>0</tilted></_>
    <_>
      <rects>
        <_>
          10 8 2 2 -1.</_>
        <_>
          10 8 1 1 2.</_>
        <_>
          11 9 1 1 2.</_></rects>
      <tilted>0</tilted></_>
    <_>
      <rects>
        <_>
          10 10 2 2 -1.</_>
        <_>
          10 10 1 1 2.</_>
        <_>
          11 11 1 1 2.</_></rects>
      <tilted>0</tilted></_>
    <_>
      <rects>
        <_>
          10 12 2 4 -1.</_>
        <_>
          10 12 1 2 2.</_>
        <_>
          11 14 1 2 2.</_></rects>
      <tilted>0</tilted></_>
    <_>
      <rects>
        <_>
          10 12 14 8 -1.</_>
        <_>
          10 12 7 4 2.</_>
        <_>
          17 16 7 4 2.</_></rects>
      <tilted>0</tilted></_>
    <_>
      <rects>
        <_>
          10 14 6 2 -1.</_>
        <_>
          13 14 3 2 2.</_></rects>
      <tilted>0</tilted></_>
    <_>
      <rects>
        <_>
          10 18 13 6 -1.</_>
        <_>
          10 21 13 3 2.</_></rects>
      <tilted>0</tilted></_>
    <_>
      <rects>
        <_>
          10 22 10 2 -1.</_>
        <_>
          10 22 5 1 2.</_>
        <_>
          15 23 5 1 2.</_></rects>
      <tilted>0</tilted></_>
    <_>
      <rects>
        <_>
          11 2 12 22 -1.</_>
        <_>
          17 2 6 22 2.</_></rects>
      <tilted>0</tilted></_>
    <_>
      <rects>
        <_>
          11 3 2 4 -1.</_>
        <_>
          11 3 1 2 2.</_>
        <_>
          12 5 1 2 2.</_></rects>
      <tilted>0</tilted></_>
    <_>
      <rects>
        <_>
          11 7 6 1 -1.</_>
        <_>
          14 7 3 1 2.</_></rects>
      <tilted>0</tilted></_>
    <_>
      <rects>
        <_>
          11 9 9 2 -1.</_>
        <_>
          11 10 9 1 2.</_></rects>
      <tilted>0</tilted></_>
    <_>
      <rects>
        <_>
          11 10 9 4 -1.</_>
        <_>
          14 10 3 4 2.</_></rects>
      <tilted>0</tilted></_>
    <_>
      <rects>
        <_>
          11 11 8 3 -1.</_>
        <_>
          15 11 4 3 2.</_></rects>
      <tilted>0</tilted></_>
    <_>
      <rects>
        <_>
          11 14 2 2 -1.</_>
        <_>
          11 14 1 1 2.</_>
        <_>
          12 15 1 1 2.</_></rects>
      <tilted>0</tilted></_>
    <_>
      <rects>
        <_>
          11 14 4 1 -1.</_>
        <_>
          13 14 2 1 2.</_></rects>
      <tilted>0</tilted></_>
    <_>
      <rects>
        <_>
          11 16 2 2 -1.</_>
        <_>
          11 16 1 1 2.</_>
        <_>
          12 17 1 1 2.</_></rects>
      <tilted>0</tilted></_>
    <_>
      <rects>
        <_>
          11 18 3 4 -1.</_>
        <_>
          11 20 3 2 2.</_></rects>
      <tilted>0</tilted></_>
    <_>
      <rects>
        <_>
          11 22 2 2 -1.</_>
        <_>
          11 22 1 1 2.</_>
        <_>
          12 23 1 1 2.</_></rects>
      <tilted>0</tilted></_>
    <_>
      <rects>
        <_>
          12 8 9 2 -1.</_>
        <_>
          12 9 9 1 2.</_></rects>
      <tilted>0</tilted></_>
    <_>
      <rects>
        <_>
          12 9 4 8 -1.</_>
        <_>
          12 13 4 4 2.</_></rects>
      <tilted>0</tilted></_>
    <_>
      <rects>
        <_>
          12 10 3 2 -1.</_>
        <_>
          12 11 3 1 2.</_></rects>
      <tilted>0</tilted></_>
    <_>
      <rects>
        <_>
          13 0 1 2 -1.</_>
        <_>
          13 1 1 1 2.</_></rects>
      <tilted>0</tilted></_>
    <_>
      <rects>
        <_>
          13 1 4 4 -1.</_>
        <_>
          13 1 2 2 2.</_>
        <_>
          15 3 2 2 2.</_></rects>
      <tilted>0</tilted></_>
    <_>
      <rects>
        <_>
          13 1 6 3 -1.</_>
        <_>
          15 1 2 3 2.</_></rects>
      <tilted>0</tilted></_>
    <_>
      <rects>
        <_>
          13 4 6 11 -1.</_>
        <_>
          16 4 3 11 2.</_></rects>
      <tilted>0</tilted></_>
    <_>
      <rects>
        <_>
          13 8 2 2 -1.</_>
        <_>
          13 8 1 1 2.</_>
        <_>
          14 9 1 1 2.</_></rects>
      <tilted>0</tilted></_>
    <_>
      <rects>
        <_>
          13 8 8 6 -1.</_>
        <_>
          17 8 4 6 2.</_></rects>
      <tilted>0</tilted></_>
    <_>
      <rects>
        <_>
          13 9 2 4 -1.</_>
        <_>
          13 9 1 2 2.</_>
        <_>
          14 11 1 2 2.</_></rects>
      <tilted>0</tilted></_>
    <_>
      <rects>
        <_>
          13 14 6 2 -1.</_>
        <_>
          13 14 3 1 2.</_>
        <_>
          16 15 3 1 2.</_></rects>
      <tilted>0</tilted></_>
    <_>
      <rects>
        <_>
          14 1 10 20 -1.</_>
        <_>
          19 1 5 20 2.</_></rects>
      <tilted>0</tilted></_>
    <_>
      <rects>
        <_>
          14 3 2 2 -1.</_>
        <_>
          14 3 1 1 2.</_>
        <_>
          15 4 1 1 2.</_></rects>
      <tilted>0</tilted></_>
    <_>
      <rects>
        <_>
          14 4 2 2 -1.</_>
        <_>
          15 4 1 2 2.</_></rects>
      <tilted>0</tilted></_>
    <_>
      <rects>
        <_>
          14 7 8 2 -1.</_>
        <_>
          18 7 4 2 2.</_></rects>
      <tilted>0</tilted></_>
    <_>
      <rects>
        <_>
          14 8 4 2 -1.</_>
        <_>
          14 8 2 1 2.</_>
        <_>
          16 9 2 1 2.</_></rects>
      <tilted>0</tilted></_>
    <_>
      <rects>
        <_>
          14 9 10 12 -1.</_>
        <_>
          19 9 5 12 2.</_></rects>
      <tilted>0</tilted></_>
    <_>
      <rects>
        <_>
          14 11 2 7 -1.</_>
        <_>
          15 11 1 7 2.</_></rects>
      <tilted>0</tilted></_>
    <_>
      <rects>
        <_>
          14 14 9 2 -1.</_>
        <_>
          17 14 3 2 2.</_></rects>
      <tilted>0</tilted></_>
    <_>
      <rects>
        <_>
          14 15 2 2 -1.</_>
        <_>
          14 15 1 1 2.</_>
        <_>
          15 16 1 1 2.</_></rects>
      <tilted>0</tilted></_>
    <_>
      <rects>
        <_>
          14 22 1 2 -1.</_>
        <_>
          14 23 1 1 2.</_></rects>
      <tilted>0</tilted></_>
    <_>
      <rects>
        <_>
          15 0 2 4 -1.</_>
        <_>
          16 0 1 4 2.</_></rects>
      <tilted>0</tilted></_>
    <_>
      <rects>
        <_>
          15 2 1 4 -1.</_>
        <_>
          15 4 1 2 2.</_></rects>
      <tilted>0</tilted></_>
    <_>
      <rects>
        <_>
          15 4 4 18 -1.</_>
        <_>
          15 4 2 9 2.</_>
        <_>
          17 13 2 9 2.</_></rects>
      <tilted>0</tilted></_>
    <_>
      <rects>
        <_>
          15 5 4 6 -1.</_>
        <_>
          15 5 2 3 2.</_>
        <_>
          17 8 2 3 2.</_></rects>
      <tilted>0</tilted></_>
    <_>
      <rects>
        <_>
          15 6 2 2 -1.</_>
        <_>
          15 6 1 1 2.</_>
        <_>
          16 7 1 1 2.</_></rects>
      <tilted>0</tilted></_>
    <_>
      <rects>
        <_>
          15 8 4 4 -1.</_>
        <_>
          15 8 2 2 2.</_>
        <_>
          17 10 2 2 2.</_></rects>
      <tilted>0</tilted></_>
    <_>
      <rects>
        <_>
          15 9 2 2 -1.</_>
        <_>
          15 9 1 1 2.</_>
        <_>
          16 10 1 1 2.</_></rects>
      <tilted>0</tilted></_>
    <_>
      <rects>
        <_>
          15 9 4 4 -1.</_>
        <_>
          15 9 2 2 2.</_>
        <_>
          17 11 2 2 2.</_></rects>
      <tilted>0</tilted></_>
    <_>
      <rects>
        <_>
          15 10 2 2 -1.</_>
        <_>
          15 10 1 1 2.</_>
        <_>
          16 11 1 1 2.</_></rects>
      <tilted>0</tilted></_>
    <_>
      <rects>
        <_>
          15 14 8 6 -1.</_>
        <_>
          15 14 4 3 2.</_>
        <_>
          19 17 4 3 2.</_></rects>
      <tilted>0</tilted></_>
    <_>
      <rects>
        <_>
          15 15 2 2 -1.</_>
        <_>
          15 15 1 1 2.</_>
        <_>
          16 16 1 1 2.</_></rects>
      <tilted>0</tilted></_>
    <_>
      <rects>
        <_>
          15 16 4 5 -1.</_>
        <_>
          17 16 2 5 2.</_></rects>
      <tilted>0</tilted></_>
    <_>
      <rects>
        <_>
          15 20 9 4 -1.</_>
        <_>
          15 22 9 2 2.</_></rects>
      <tilted>0</tilted></_>
    <_>
      <rects>
        <_>
          16 0 4 11 -1.</_>
        <_>
          18 0 2 11 2.</_></rects>
      <tilted>0</tilted></_>
    <_>
      <rects>
        <_>
          16 0 8 20 -1.</_>
        <_>
          20 0 4 20 2.</_></rects>
      <tilted>0</tilted></_>
    <_>
      <rects>
        <_>
          16 1 3 2 -1.</_>
        <_>
          16 2 3 1 2.</_></rects>
      <tilted>0</tilted></_>
    <_>
      <rects>
        <_>
          16 4 2 2 -1.</_>
        <_>
          16 4 1 1 2.</_>
        <_>
          17 5 1 1 2.</_></rects>
      <tilted>0</tilted></_>
    <_>
      <rects>
        <_>
          16 8 6 2 -1.</_>
        <_>
          18 8 2 2 2.</_></rects>
      <tilted>0</tilted></_>
    <_>
      <rects>
        <_>
          16 10 2 2 -1.</_>
        <_>
          16 10 1 1 2.</_>
        <_>
          17 11 1 1 2.</_></rects>
      <tilted>0</tilted></_>
    <_>
      <rects>
        <_>
          16 12 4 4 -1.</_>
        <_>
          16 12 2 2 2.</_>
        <_>
          18 14 2 2 2.</_></rects>
      <tilted>0</tilted></_>
    <_>
      <rects>
        <_>
          16 13 2 2 -1.</_>
        <_>
          16 13 1 1 2.</_>
        <_>
          17 14 1 1 2.</_></rects>
      <tilted>0</tilted></_>
    <_>
      <rects>
        <_>
          16 17 3 2 -1.</_>
        <_>
          17 17 1 2 2.</_></rects>
      <tilted>0</tilted></_>
    <_>
      <rects>
        <_>
          16 17 6 2 -1.</_>
        <_>
          19 17 3 2 2.</_></rects>
      <tilted>0</tilted></_>
    <_>
      <rects>
        <_>
          16 18 1 6 -1.</_>
        <_>
          16 21 1 3 2.</_></rects>
      <tilted>0</tilted></_>
    <_>
      <rects>
        <_>
          17 0 6 1 -1.</_>
        <_>
          20 0 3 1 2.</_></rects>
      <tilted>0</tilted></_>
    <_>
      <rects>
        <_>
          17 5 2 19 -1.</_>
        <_>
          18 5 1 19 2.</_></rects>
      <tilted>0</tilted></_>
    <_>
      <rects>
        <_>
          17 6 2 2 -1.</_>
        <_>
          17 7 2 1 2.</_></rects>
      <tilted>0</tilted></_>
    <_>
      <rects>
        <_>
          17 6 4 4 -1.</_>
        <_>
          17 6 2 2 2.</_>
        <_>
          19 8 2 2 2.</_></rects>
      <tilted>0</tilted></_>
    <_>
      <rects>
        <_>
          17 8 4 6 -1.</_>
        <_>
          17 10 4 2 2.</_></rects>
      <tilted>0</tilted></_>
    <_>
      <rects>
        <_>
          17 11 4 3 -1.</_>
        <_>
          19 11 2 3 2.</_></rects>
      <tilted>0</tilted></_>
    <_>
      <rects>
        <_>
          17 15 2 2 -1.</_>
        <_>
          17 15 1 1 2.</_>
        <_>
          18 16 1 1 2.</_></rects>
      <tilted>0</tilted></_>
    <_>
      <rects>
        <_>
          17 21 3 1 -1.</_>
        <_>
          18 21 1 1 2.</_></rects>
      <tilted>0</tilted></_>
    <_>
      <rects>
        <_>
          18 0 2 1 -1.</_>
        <_>
          19 0 1 1 2.</_></rects>
      <tilted>0</tilted></_>
    <_>
      <rects>
        <_>
          18 1 2 20 -1.</_>
        <_>
          18 1 1 10 2.</_>
        <_>
          19 11 1 10 2.</_></rects>
      <tilted>0</tilted></_>
    <_>
      <rects>
        <_>
          18 5 6 17 -1.</_>
        <_>
          21 5 3 17 2.</_></rects>
      <tilted>0</tilted></_>
    <_>
      <rects>
        <_>
          18 6 6 11 -1.</_>
        <_>
          21 6 3 11 2.</_></rects>
      <tilted>0</tilted></_>
    <_>
      <rects>
        <_>
          18 7 6 16 -1.</_>
        <_>
          21 7 3 16 2.</_></rects>
      <tilted>0</tilted></_>
    <_>
      <rects>
        <_>
          18 8 2 3 -1.</_>
        <_>
          18 9 2 1 2.</_></rects>
      <tilted>0</tilted></_>
    <_>
      <rects>
        <_>
          18 8 2 4 -1.</_>
        <_>
          18 10 2 2 2.</_></rects>
      <tilted>0</tilted></_>
    <_>
      <rects>
        <_>
          18 9 6 6 -1.</_>
        <_>
          21 9 3 6 2.</_></rects>
      <tilted>0</tilted></_>
    <_>
      <rects>
        <_>
          18 22 2 2 -1.</_>
        <_>
          19 22 1 2 2.</_></rects>
      <tilted>0</tilted></_>
    <_>
      <rects>
        <_>
          19 6 2 2 -1.</_>
        <_>
          19 6 1 1 2.</_>
        <_>
          20 7 1 1 2.</_></rects>
      <tilted>0</tilted></_>
    <_>
      <rects>
        <_>
          19 9 2 2 -1.</_>
        <_>
          19 9 1 1 2.</_>
        <_>
          20 10 1 1 2.</_></rects>
      <tilted>0</tilted></_>
    <_>
      <rects>
        <_>
          19 15 4 2 -1.</_>
        <_>
          21 15 2 2 2.</_></rects>
      <tilted>0</tilted></_>
    <_>
      <rects>
        <_>
          19 20 1 3 -1.</_>
        <_>
          19 21 1 1 2.</_></rects>
      <tilted>0</tilted></_>
    <_>
      <rects>
        <_>
          20 0 4 20 -1.</_>
        <_>
          20 0 2 10 2.</_>
        <_>
          22 10 2 10 2.</_></rects>
      <tilted>0</tilted></_>
    <_>
      <rects>
        <_>
          20 0 3 2 -1.</_>
        <_>
          20 1 3 1 2.</_></rects>
      <tilted>0</tilted></_>
    <_>
      <rects>
        <_>
          20 10 4 8 -1.</_>
        <_>
          20 10 2 4 2.</_>
        <_>
          22 14 2 4 2.</_></rects>
      <tilted>0</tilted></_>
    <_>
      <rects>
        <_>
          20 15 4 2 -1.</_>
        <_>
          20 16 4 1 2.</_></rects>
      <tilted>0</tilted></_>
    <_>
      <rects>
        <_>
          20 19 4 2 -1.</_>
        <_>
          20 19 2 1 2.</_>
        <_>
          22 20 2 1 2.</_></rects>
      <tilted>0</tilted></_>
    <_>
      <rects>
        <_>
          21 0 1 2 -1.</_>
        <_>
          21 1 1 1 2.</_></rects>
      <tilted>0</tilted></_>
    <_>
      <rects>
        <_>
          21 1 2 1 -1.</_>
        <_>
          22 1 1 1 2.</_></rects>
      <tilted>0</tilted></_>
    <_>
      <rects>
        <_>
          21 5 2 1 -1.</_>
        <_>
          22 5 1 1 2.</_></rects>
      <tilted>0</tilted></_>
    <_>
      <rects>
        <_>
          21 6 3 4 -1.</_>
        <_>
          22 6 1 4 2.</_></rects>
      <tilted>0</tilted></_>
    <_>
      <rects>
        <_>
          21 16 2 3 -1.</_>
        <_>
          21 17 2 1 2.</_></rects>
      <tilted>0</tilted></_>
    <_>
      <rects>
        <_>
          21 21 1 2 -1.</_>
        <_>
          21 22 1 1 2.</_></rects>
      <tilted>0</tilted></_>
    <_>
      <rects>
        <_>
          22 0 2 1 -1.</_>
        <_>
          23 0 1 1 2.</_></rects>
      <tilted>0</tilted></_>
    <_>
      <rects>
        <_>
          22 0 2 24 -1.</_>
        <_>
          22 12 2 12 2.</_></rects>
      <tilted>0</tilted></_>
    <_>
      <rects>
        <_>
          22 4 2 2 -1.</_>
        <_>
          22 5 2 1 2.</_></rects>
      <tilted>0</tilted></_>
    <_>
      <rects>
        <_>
          22 6 2 10 -1.</_>
        <_>
          23 6 1 10 2.</_></rects>
      <tilted>0</tilted></_>
    <_>
      <rects>
        <_>
          22 18 1 2 -1.</_>
        <_>
          22 19 1 1 2.</_></rects>
      <tilted>0</tilted></_>
    <_>
      <rects>
        <_>
          22 18 1 6 -1.</_>
        <_>
          22 20 1 2 2.</_></rects>
      <tilted>0</tilted></_>
    <_>
      <rects>
        <_>
          22 19 1 3 -1.</_>
        <_>
          22 20 1 1 2.</_></rects>
      <tilted>0</tilted></_>
    <_>
      <rects>
        <_>
          22 19 2 2 -1.</_>
        <_>
          22 20 2 1 2.</_></rects>
      <tilted>0</tilted></_>
    <_>
      <rects>
        <_>
          22 21 1 3 -1.</_>
        <_>
          22 22 1 1 2.</_></rects>
      <tilted>0</tilted></_>
    <_>
      <rects>
        <_>
          23 1 1 3 -1.</_>
        <_>
          23 2 1 1 2.</_></rects>
      <tilted>0</tilted></_>
    <_>
      <rects>
        <_>
          23 3 1 4 -1.</_>
        <_>
          23 5 1 2 2.</_></rects>
      <tilted>0</tilted></_>
    <_>
      <rects>
        <_>
          23 3 1 15 -1.</_>
        <_>
          23 8 1 5 2.</_></rects>
      <tilted>0</tilted></_>
    <_>
      <rects>
        <_>
          23 4 1 2 -1.</_>
        <_>
          23 5 1 1 2.</_></rects>
      <tilted>0</tilted></_>
    <_>
      <rects>
        <_>
          23 7 1 10 -1.</_>
        <_>
          23 12 1 5 2.</_></rects>
      <tilted>0</tilted></_>
    <_>
      <rects>
        <_>
          23 14 1 2 -1.</_>
        <_>
          23 15 1 1 2.</_></rects>
      <tilted>0</tilted></_>
    <_>
      <rects>
        <_>
          23 18 1 2 -1.</_>
        <_>
          23 19 1 1 2.</_></rects>
      <tilted>0</tilted></_></features></cascade>
</opencv_storage>
