<?xml version="1.0"?>
<opencv_storage>
<stage15>
  <maxWeakCount>8</maxWeakCount>
  <stageThreshold>-1.3268464803695679e+00</stageThreshold>
  <weakClassifiers>
    <_>
      <internalNodes>
        0 -1 946 1.4327870681881905e-02</internalNodes>
      <leafValues>
        -6.7337805032730103e-01 -3.3898305147886276e-02</leafValues></_>
    <_>
      <internalNodes>
        0 -1 146846 1.4370522694662213e-04</internalNodes>
      <leafValues>
        -3.6079856753349304e-01 3.2725530862808228e-01</leafValues></_>
    <_>
      <internalNodes>
        0 -1 31864 7.5667444616556168e-04</internalNodes>
      <leafValues>
        -1.6832309961318970e-01 6.2125325202941895e-01</leafValues></_>
    <_>
      <internalNodes>
        0 -1 78994 3.8729299558326602e-04</internalNodes>
      <leafValues>
        -1.6815216839313507e-01 5.1400333642959595e-01</leafValues></_>
    <_>
      <internalNodes>
        0 -1 3910 8.4738322766497731e-04</internalNodes>
      <leafValues>
        -3.4550166130065918e-01 3.6467310786247253e-01</leafValues></_>
    <_>
      <internalNodes>
        0 -1 10049 2.7309059078106657e-05</internalNodes>
      <leafValues>
        -2.9695925116539001e-01 3.4780800342559814e-01</leafValues></_>
    <_>
      <internalNodes>
        0 -1 159064 -5.2870060317218304e-03</internalNodes>
      <leafValues>
        5.1607817411422729e-01 -1.8946865200996399e-01</leafValues></_>
    <_>
      <internalNodes>
        0 -1 139251 2.5797430425882339e-03</internalNodes>
      <leafValues>
        1.9357946515083313e-01 -7.1506088972091675e-01</leafValues></_></weakClassifiers></stage15>
</opencv_storage>
