<?xml version="1.0"?>
<opencv_storage>
<stage7>
  <maxWeakCount>9</maxWeakCount>
  <stageThreshold>-1.3612377643585205e+00</stageThreshold>
  <weakClassifiers>
    <_>
      <internalNodes>
        0 -1 13414 -1.5526635572314262e-02</internalNodes>
      <leafValues>
        -7.1031743288040161e-01 8.6885243654251099e-01</leafValues></_>
    <_>
      <internalNodes>
        0 -1 42962 -2.7800613641738892e-01</internalNodes>
      <leafValues>
        -2.9769161343574524e-01 7.0995849370956421e-01</leafValues></_>
    <_>
      <internalNodes>
        0 -1 82860 -9.1089874505996704e-02</internalNodes>
      <leafValues>
        4.0102636814117432e-01 -4.1174972057342529e-01</leafValues></_>
    <_>
      <internalNodes>
        0 -1 161510 -5.8652460575103760e-04</internalNodes>
      <leafValues>
        -6.3787204027175903e-01 2.4857866764068604e-01</leafValues></_>
    <_>
      <internalNodes>
        0 -1 38738 8.3029359579086304e-02</internalNodes>
      <leafValues>
        -2.0666019618511200e-01 6.6157037019729614e-01</leafValues></_>
    <_>
      <internalNodes>
        0 -1 111812 -8.4423727821558714e-04</internalNodes>
      <leafValues>
        6.7492932081222534e-01 -2.1085040271282196e-01</leafValues></_>
    <_>
      <internalNodes>
        0 -1 9442 -5.2063644398003817e-04</internalNodes>
      <leafValues>
        -5.2156817913055420e-01 2.6719978451728821e-01</leafValues></_>
    <_>
      <internalNodes>
        0 -1 120128 1.1132112558698282e-04</internalNodes>
      <leafValues>
        -2.8100860118865967e-01 4.1425064206123352e-01</leafValues></_>
    <_>
      <internalNodes>
        0 -1 4091 9.7338552586734295e-04</internalNodes>
      <leafValues>
        2.4126173555850983e-01 -4.9880468845367432e-01</leafValues></_></weakClassifiers></stage7>
</opencv_storage>
